DATE: 2022-11-23 UNITS: metal CONTRIBUTOR: Xiaowang Zhou xzhou@sandia.gov, Lucas Hale lucas.hale@nist.gov, and Germain Clavier g.m.g.c.clavier@tue.nl/germain.clavier@gmail.com
 CITATION: X. W. Zhou, R. A. Johnson, H. N. G. Wadley, Phys. Rev. B, 69, 144113(2004)
Generated by create_eam.py
2     Cu Ta                   
2000  6.4750767269549897e-02   2000  3.1992685208722129e-03   6.3953377732235532e+00  
   29        63.54600         3.61496      fcc
   0.0000000000000000E+00  -1.7560987442395426E-02  -3.5030536982144422E-02  -5.2408876993876863E-02  -6.9696235852224175E-02
  -8.6892841931817344E-02  -1.0399892360728769E-01  -1.2101470925326552E-01  -1.3794042724438194E-01  -1.5477630595526892E-01
  -1.7152257376055591E-01  -1.8817945903487454E-01  -2.0474719015285670E-01  -2.2122599548913169E-01  -2.3761610341833173E-01
  -2.5391774231508690E-01  -2.7013114055402965E-01  -2.8625652650978917E-01  -3.0229412855699755E-01  -3.1824417507028557E-01
  -3.3410689442428387E-01  -3.4988251499362366E-01  -3.6557126515293614E-01  -3.8117337327685197E-01  -3.9668906774000234E-01
  -4.1211857691701792E-01  -4.2746212918253057E-01  -4.4271995291116983E-01  -4.5789227647756758E-01  -4.7297932825635480E-01
  -4.8798133662216270E-01  -5.0289852994962114E-01  -5.1773113661336234E-01  -5.3247938498801717E-01  -5.4714350344821594E-01
  -5.6172372036858942E-01  -5.7622026412376937E-01  -5.9063336308838699E-01  -6.0496324563707204E-01  -6.1921014014445652E-01
  -6.3337427498517140E-01  -6.4745587853384690E-01  -6.6145517916511443E-01  -6.7537240525360565E-01  -6.8920778517395054E-01
  -7.0296154730078031E-01  -7.1663392000872594E-01  -7.3022513167241909E-01  -7.4373541066648985E-01  -7.5716498536556931E-01
  -7.7051408414428924E-01  -7.8378293537727961E-01  -7.9697176743917197E-01  -8.1008080870459742E-01  -8.2311028754818627E-01
  -8.3606043234457017E-01  -8.4893147146837933E-01  -8.6172363329424573E-01  -8.7443714619679980E-01  -8.8707223855067285E-01
  -8.9962913873049555E-01  -9.1210807511089842E-01  -9.2450927606651323E-01  -9.3683296997197041E-01  -9.4907938520190127E-01
  -9.6124875013093725E-01  -9.7334129313370821E-01  -9.8535724258484647E-01  -9.9729682685898169E-01  -1.0091602743307453E+00
  -1.0209478133747687E+00  -1.0326596723656820E+00  -1.0442960796781171E+00  -1.0558572636867052E+00  -1.0673434527660766E+00
  -1.0787548752908616E+00  -1.0900917596356923E+00  -1.1013543341751995E+00  -1.1125428272840134E+00  -1.1236574673367667E+00
  -1.1346984827080884E+00  -1.1456661017726106E+00  -1.1565605529049643E+00  -1.1673820644797801E+00  -1.1781308648716888E+00
  -1.1888071824553217E+00  -1.1994112456053101E+00  -1.2099432826962844E+00  -1.2204035221028762E+00  -1.2307921921997154E+00
  -1.2411095213614338E+00  -1.2513557379626625E+00  -1.2615310703780322E+00  -1.2716357469821742E+00  -1.2816699961497191E+00
  -1.2916340462552975E+00  -1.3015281256735411E+00  -1.3113524627790805E+00  -1.3211072859465469E+00  -1.3307928235505713E+00
  -1.3404093039657847E+00  -1.3499569555668174E+00  -1.3594360067283013E+00  -1.3688466858248669E+00  -1.3781892212311451E+00
  -1.3874638413217670E+00  -1.3966707744713642E+00  -1.4058102490545668E+00  -1.4148824934460063E+00  -1.4238877360203128E+00
  -1.4328262051521186E+00  -1.4416981292160536E+00  -1.4505037365867492E+00  -1.4592432556388371E+00  -1.4679169147469473E+00
  -1.4765249422857105E+00  -1.4850675666297588E+00  -1.4935450161537225E+00  -1.5019575192322323E+00  -1.5103053042399197E+00
  -1.5185885995514159E+00  -1.5268076335413512E+00  -1.5349626345843570E+00  -1.5430538310550641E+00  -1.5510814513281035E+00
  -1.5590457237781064E+00  -1.5669468767797035E+00  -1.5747851387075260E+00  -1.5825607379362046E+00  -1.5902739028403707E+00
  -1.5979248617946553E+00  -1.6055138431736886E+00  -1.6130410753521023E+00  -1.6205067867045271E+00  -1.6279112056055940E+00
  -1.6352545604299342E+00  -1.6425370795521783E+00  -1.6497589913469577E+00  -1.6569205241889029E+00  -1.6640219064526451E+00
  -1.6710633665128158E+00  -1.6780451327440451E+00  -1.6849674335209643E+00  -1.6918304972182046E+00  -1.6986345522103967E+00
  -1.7053798268721723E+00  -1.7120665495781617E+00  -1.7186949487029957E+00  -1.7252652526213055E+00  -1.7317776897077222E+00
  -1.7382324883368765E+00  -1.7446298768834001E+00  -1.7509700837219231E+00  -1.7572533372270767E+00  -1.7634798657734925E+00
  -1.7696498977358008E+00  -1.7757636614886327E+00  -1.7818213854066194E+00  -1.7878232978643915E+00  -1.7937696272365804E+00
  -1.7996606018978167E+00  -1.8054964502227322E+00  -1.8112774005859567E+00  -1.8170036813621222E+00  -1.8226755209258589E+00
  -1.8282931476517983E+00  -1.8338567899145710E+00  -1.8393666760888081E+00  -1.8448230345491405E+00  -1.8502260936701995E+00
  -1.8555760818266163E+00  -1.8608732273930209E+00  -1.8661177587440450E+00  -1.8713099042543195E+00  -1.8764498922984754E+00
  -1.8815379512511434E+00  -1.8865743094869549E+00  -1.8915591953805404E+00  -1.8964928373065313E+00  -1.9013754636395590E+00
  -1.9062073027542532E+00  -1.9109885830252455E+00  -1.9157195328271672E+00  -1.9204003805346490E+00  -1.9250313545223217E+00
  -1.9296126831648166E+00  -1.9341445948367646E+00  -1.9386273179127966E+00  -1.9430610807675437E+00  -1.9474461117756368E+00
  -1.9517826393117068E+00  -1.9560708917503848E+00  -1.9603110974663016E+00  -1.9645034848340883E+00  -1.9686482822283760E+00
  -1.9727457180237957E+00  -1.9767960205949779E+00  -1.9807994183165547E+00  -1.9847561395631561E+00  -1.9886664127094129E+00
  -1.9925304661299565E+00  -1.9963485281994182E+00  -2.0001208272924282E+00  -2.0038475917836180E+00  -2.0075290500476184E+00
  -2.0111654304590609E+00  -2.0147569613925760E+00  -2.0183038712227943E+00  -2.0218063883243471E+00  -2.0252647410718660E+00
  -2.0286791578399810E+00  -2.0320498670033240E+00  -2.0353770969365259E+00  -2.0386610760142165E+00  -2.0419020326110280E+00
  -2.0451001951015910E+00  -2.0482557918605360E+00  -2.0513690512624945E+00  -2.0544402016820973E+00  -2.0574694714939761E+00
  -2.0604570890727607E+00  -2.0634032827930828E+00  -2.0663082810295728E+00  -2.0691723121568630E+00  -2.0719956045495826E+00
  -2.0747783865823641E+00  -2.0775208866298374E+00  -2.0802233330666340E+00  -2.0828859542673848E+00  -2.0855089786067205E+00
  -2.0880926344592732E+00  -2.0906371501996728E+00  -2.0931427542025500E+00  -2.0956096748425361E+00  -2.0980381404942632E+00
  -2.1004283795323606E+00  -2.1027806203314601E+00  -2.1050950912661923E+00  -2.1073720207111890E+00  -2.1096116370410805E+00
  -2.1118141686304983E+00  -2.1139798438540724E+00  -2.1161088910864350E+00  -2.1182015387022157E+00  -2.1202580150760473E+00
  -2.1222785485825586E+00  -2.1242633675963827E+00  -2.1262127004921489E+00  -2.1281267756444895E+00  -2.1300058214280346E+00
  -2.1318500662174151E+00  -2.1336597383872622E+00  -2.1354350663122075E+00  -2.1371762783668813E+00  -2.1388836029259148E+00
  -2.1405572683639384E+00  -2.1421975030555842E+00  -2.1438045353754824E+00  -2.1453785936982639E+00  -2.1469199063985607E+00
  -2.1484287018510027E+00  -2.1499052084302206E+00  -2.1513496545108461E+00  -2.1527622684675114E+00  -2.1541432786748449E+00
  -2.1554929135074787E+00  -2.1568114013400441E+00  -2.1580989705471723E+00  -2.1593558495034935E+00  -2.1605822665836389E+00
  -2.1617784501622399E+00  -2.1629446286139271E+00  -2.1640810303133313E+00  -2.1651878836350837E+00  -2.1662654169538160E+00
  -2.1673138586441580E+00  -2.1683334370807414E+00  -2.1693243806381970E+00  -2.1702872345858797E+00  -2.1712216178066090E+00
  -2.1721281857199375E+00  -2.1730072986592375E+00  -2.1738593169578819E+00  -2.1746846009492447E+00  -2.1754835109666981E+00
  -2.1762564073436139E+00  -2.1770036504133663E+00  -2.1777256005093268E+00  -2.1784226179648698E+00  -2.1790950631133668E+00
  -2.1797432962881915E+00  -2.1803676778227152E+00  -2.1809685680503130E+00  -2.1815463273043560E+00  -2.1821013159182177E+00
  -2.1826338942252708E+00  -2.1831444225588874E+00  -2.1836332612524423E+00  -2.1841007706393056E+00  -2.1845473110528526E+00
  -2.1849732428264543E+00  -2.1853789262934851E+00  -2.1857647217873164E+00  -2.1861309896413212E+00  -2.1864780901888730E+00
  -2.1868063837633449E+00  -2.1871162306981082E+00  -2.1874079913265376E+00  -2.1876820259820042E+00  -2.1879386949978818E+00
  -2.1881783587075430E+00  -2.1884013774443605E+00  -2.1886081115417078E+00  -2.1887989213329568E+00  -2.1889741671514802E+00
  -2.1891342093306521E+00  -2.1892794082038440E+00  -2.1894101241044290E+00  -2.1895267173657804E+00  -2.1896295483212707E+00
  -2.1897189773042731E+00  -2.1897953646481598E+00  -2.1898590706863037E+00  -2.1899104557520781E+00  -2.1899498801788555E+00
  -2.1899777043000084E+00  -2.1899942884489105E+00  -2.1899999929589336E+00  -2.1899951781634508E+00  -2.1899802043958356E+00
  -2.1899554319894601E+00  -2.1899212212776975E+00  -2.1898779325939204E+00  -2.1898259262715012E+00  -2.1897655626438137E+00
  -2.1896972020442300E+00  -2.1896212048061234E+00  -2.1895379312628660E+00  -2.1894477417478315E+00  -2.1893509965943916E+00
  -2.1892480561359200E+00  -2.1891392807057897E+00  -2.1890250306373731E+00  -2.1889056662640427E+00  -2.1887815479191715E+00
  -2.1886530359361327E+00  -2.1885204906482989E+00  -2.1883842723890425E+00  -2.1882447414917374E+00  -2.1881022582897551E+00
  -2.1879571831164695E+00  -2.1878098763052529E+00  -2.1876606981894779E+00  -2.1875100091025175E+00  -2.1873581693777449E+00
  -2.1872055393485326E+00  -2.1870524793482531E+00  -2.1868993497102798E+00  -2.1867465107679851E+00  -2.1865943228547424E+00
  -2.1864431463039238E+00  -2.1862933414489021E+00  -2.1861452686230507E+00  -2.1859992881597421E+00  -2.1858557603923492E+00
  -2.1857150456542449E+00  -2.1855775042788017E+00  -2.1854434965993930E+00  -2.1853133829493907E+00  -2.1851875236621687E+00
  -2.1850662790710986E+00  -2.1849500095095542E+00  -2.1848390753109079E+00  -2.1847338368085327E+00  -2.1846346543358011E+00
  -2.1845418882260863E+00  -2.1844558988127609E+00  -2.1843731410543068E+00  -2.1842893480911814E+00  -2.1842041660954656E+00
  -2.1841176040522194E+00  -2.1840296708705527E+00  -2.1839403753844460E+00  -2.1838497263535630E+00  -2.1837577324640498E+00
  -2.1836644023293257E+00  -2.1835697444908635E+00  -2.1834737674189566E+00  -2.1833764795134822E+00  -2.1832778891046449E+00
  -2.1831780044537226E+00  -2.1830768337537907E+00  -2.1829743851304464E+00  -2.1828706666425162E+00  -2.1827656862827634E+00
  -2.1826594519785747E+00  -2.1825519715926474E+00  -2.1824432529236639E+00  -2.1823333037069594E+00  -2.1822221316151760E+00
  -2.1821097442589172E+00  -2.1819961491873863E+00  -2.1818813538890205E+00  -2.1817653657921148E+00  -2.1816481922654400E+00
  -2.1815298406188552E+00  -2.1814103181039037E+00  -2.1812896319144128E+00  -2.1811677891870769E+00  -2.1810447970020399E+00
  -2.1809206623834654E+00  -2.1807953923001042E+00  -2.1806689936658490E+00  -2.1805414733402899E+00  -2.1804128381292562E+00
  -2.1802830947853549E+00  -2.1801522500085038E+00  -2.1800203104464524E+00  -2.1798872826953049E+00  -2.1797531733000266E+00
  -2.1796179887549574E+00  -2.1794817355043032E+00  -2.1793444199426348E+00  -2.1792060484153759E+00  -2.1790666272192807E+00
  -2.1789261626029139E+00  -2.1787846607671200E+00  -2.1786421278654857E+00  -2.1784985700048041E+00  -2.1783539932455218E+00
  -2.1782084036021931E+00  -2.1780618070439202E+00  -2.1779142094947894E+00  -2.1777656168343080E+00  -2.1776160348978277E+00
  -2.1774654694769695E+00  -2.1773139263200405E+00  -2.1771614111324453E+00  -2.1770079295770972E+00  -2.1768534872748160E+00
  -2.1766980898047317E+00  -2.1765417427046754E+00  -2.1763844514715682E+00  -2.1762262215618078E+00  -2.1760670583916473E+00
  -2.1759069673375713E+00  -2.1757459537366688E+00  -2.1755840228869983E+00  -2.1754211800479522E+00  -2.1752574304406171E+00
  -2.1750927792481267E+00  -2.1749272316160120E+00  -2.1747607926525521E+00  -2.1745934674291130E+00  -2.1744252609804895E+00
  -2.1742561783052388E+00  -2.1740862243660137E+00  -2.1739154040898887E+00  -2.1737437223686862E+00  -2.1735711840592944E+00
  -2.1733977939839875E+00  -2.1732235569307363E+00  -2.1730484776535204E+00  -2.1728725608726340E+00  -2.1726958112749868E+00
  -2.1725182335144093E+00  -2.1723398322119438E+00  -2.1721606119561407E+00  -2.1719805773033478E+00  -2.1717997327779974E+00
  -2.1716180828728904E+00  -2.1714356320494761E+00  -2.1712523847381306E+00  -2.1710683453384316E+00  -2.1708835182194282E+00
  -2.1706979077199149E+00  -2.1705115181486896E+00  -2.1703243537848227E+00  -2.1701364188779166E+00  -2.1699477176483590E+00
  -2.1697582542875837E+00  -2.1695680329583169E+00  -2.1693770577948297E+00  -2.1691853329031838E+00  -2.1689928623614758E+00
  -2.1687996502200777E+00  -2.1686057005018768E+00  -2.1684110172025117E+00  -2.1682156042906069E+00  -2.1680194657080021E+00
  -2.1678226053699827E+00  -2.1676250271655082E+00  -2.1674267349574317E+00  -2.1672277325827265E+00  -2.1670280238527027E+00
  -2.1668276125532264E+00  -2.1666265024449340E+00  -2.1664246972634436E+00  -2.1662222007195684E+00  -2.1660190164995243E+00
  -2.1658151482651338E+00  -2.1656105996540340E+00  -2.1654053742798762E+00  -2.1651994757325266E+00  -2.1649929075782643E+00
  -2.1647856733599777E+00  -2.1645777765973597E+00  -2.1643692207870946E+00  -2.1641600094030564E+00  -2.1639501458964894E+00
  -2.1637396336961991E+00  -2.1635284762087350E+00  -2.1633166768185728E+00  -2.1631042388882964E+00  -2.1628911657587757E+00
  -2.1626774607493449E+00  -2.1624631271579760E+00  -2.1622481682614545E+00  -2.1620325873155508E+00  -2.1618163875551897E+00
  -2.1615995721946186E+00  -2.1613821444275771E+00  -2.1611641074274575E+00  -2.1609454643474728E+00  -2.1607262183208169E+00
  -2.1605063724608260E+00  -2.1602859298611343E+00  -2.1600648935958353E+00  -2.1598432667196357E+00  -2.1596210522680082E+00
  -2.1593982532573492E+00  -2.1591748726851221E+00  -2.1589509135300156E+00  -2.1587263787520863E+00  -2.1585012712929070E+00
  -2.1582755940757141E+00  -2.1580493500055495E+00  -2.1578225419694035E+00  -2.1575951728363578E+00  -2.1573672454577237E+00
  -2.1571387626671816E+00  -2.1569097272809192E+00  -2.1566801420977653E+00  -2.1564500098993267E+00  -2.1562193334501210E+00
  -2.1559881154977072E+00  -2.1557563587728215E+00  -2.1555240659894994E+00  -2.1552912398452118E+00  -2.1550578830209881E+00
  -2.1548239981815422E+00  -2.1545895879754005E+00  -2.1543546550350219E+00  -2.1541192019769233E+00  -2.1538832314017995E+00
  -2.1536467458946440E+00  -2.1534097480248677E+00  -2.1531722403464193E+00  -2.1529342253978991E+00  -2.1526957057026768E+00
  -2.1524566837690067E+00  -2.1522171620901398E+00  -2.1519771431444386E+00  -2.1517366293954878E+00  -2.1514956232922047E+00
  -2.1512541272689507E+00  -2.1510121437456364E+00  -2.1507696751278340E+00  -2.1505267238068808E+00  -2.1502832921599859E+00
  -2.1500393825503337E+00  -2.1497949973271919E+00  -2.1495501388260099E+00  -2.1493048093685219E+00  -2.1490590112628505E+00
  -2.1488127468036033E+00  -2.1485660182719752E+00  -2.1483188279358449E+00  -2.1480711780498729E+00  -2.1478230708555999E+00
  -2.1475745085815374E+00  -2.1473254934432702E+00  -2.1470760276435441E+00  -2.1468261133723630E+00  -2.1465757528070792E+00
  -2.1463249481124853E+00  -2.1460737014409057E+00  -2.1458220149322877E+00  -2.1455698907142882E+00  -2.1453173309023623E+00
  -2.1450643375998548E+00  -2.1448109128980826E+00  -2.1445570588764213E+00  -2.1443027776023942E+00  -2.1440480711317540E+00
  -2.1437929415085657E+00  -2.1435373907652933E+00  -2.1432814209228792E+00  -2.1430250339908277E+00  -2.1427682319672852E+00
  -2.1425110168391206E+00  -2.1422533905820051E+00  -2.1419953551604913E+00  -2.1417369125280912E+00  -2.1414780646273539E+00
  -2.1412188133899437E+00  -2.1409591607367138E+00  -2.1406991085777838E+00  -2.1404386588126152E+00  -2.1401778133300842E+00
  -2.1399165740085566E+00  -2.1396549427159610E+00  -2.1393929213098586E+00  -2.1391305116375192E+00  -2.1388677155359908E+00
  -2.1386045348321678E+00  -2.1383409713428665E+00  -2.1380770268748885E+00  -2.1378127032250926E+00  -2.1375480021804658E+00
  -2.1372829255181851E+00  -2.1370174750056892E+00  -2.1367516524007444E+00  -2.1364854594515079E+00  -2.1362188978965984E+00
  -2.1359519694651561E+00  -2.1356846758769099E+00  -2.1354170188422397E+00  -2.1351490000622433E+00  -2.1348806212287936E+00
  -2.1346118840246060E+00  -2.1343427901232976E+00  -2.1340733411894495E+00  -2.1338035388786665E+00  -2.1335333848376399E+00
  -2.1332628807042040E+00  -2.1329920281073980E+00  -2.1327208286675248E+00  -2.1324492839962064E+00  -2.1321773956964458E+00
  -2.1319051653626819E+00  -2.1316325945808492E+00  -2.1313596849284289E+00  -2.1310864379745098E+00  -2.1308128552798453E+00
  -2.1305389383969007E+00  -2.1302646888699179E+00  -2.1299901082349617E+00  -2.1297151980199782E+00  -2.1294399597448450E+00
  -2.1291643949214287E+00  -2.1288885050536317E+00  -2.1286122916374497E+00  -2.1283357561610203E+00  -2.1280589001046750E+00
  -2.1277817249409892E+00  -2.1275042321348363E+00  -2.1272264231434326E+00  -2.1269482994163909E+00  -2.1266698623957687E+00
  -2.1263911135161169E+00  -2.1261120542045275E+00  -2.1258326858806842E+00  -2.1255530099569078E+00  -2.1252730278382055E+00
  -2.1249927409223153E+00  -2.1247121505997559E+00  -2.1244312582538711E+00  -2.1241500652608756E+00  -2.1238685729899025E+00
  -2.1235867828030450E+00  -2.1233046960554054E+00  -2.1230223140951368E+00  -2.1227396382634893E+00  -2.1224566698948508E+00
  -2.1221734103167944E+00  -2.1218898608501191E+00  -2.1216060228088938E+00  -2.1213218975004975E+00  -2.1210374862256649E+00
  -2.1207527902785266E+00  -2.1204678109466499E+00  -2.1201825495110813E+00  -2.1198970072463887E+00  -2.1196111854206960E+00
  -2.1193250852957330E+00  -2.1190387081268658E+00  -2.1187520551631436E+00  -2.1184651276473336E+00  -2.1181779268159633E+00
  -2.1178904538993564E+00  -2.1176027101216737E+00  -2.1173146967009502E+00  -2.1170264148491325E+00  -2.1167378657721185E+00
  -2.1164490506697926E+00  -2.1161599707360637E+00  -2.1158706271589010E+00  -2.1155810211203732E+00  -2.1152911537966821E+00
  -2.1150010263581995E+00  -2.1147106399695028E+00  -2.1144199957894112E+00  -2.1141290949710205E+00  -2.1138379386617365E+00
  -2.1135465280033121E+00  -2.1132548641318807E+00  -2.1129629481779899E+00  -2.1126707812666354E+00  -2.1123783645172960E+00
  -2.1120856990439663E+00  -2.1117927859551893E+00  -2.1114996263540884E+00  -2.1112062213384037E+00  -2.1109125720005215E+00
  -2.1106186794275059E+00  -2.1103245447011343E+00  -2.1100301688979246E+00  -2.1097355530891706E+00  -2.1094406983409715E+00
  -2.1091456057142626E+00  -2.1088502762648478E+00  -2.1085547110434284E+00  -2.1082589110956329E+00  -2.1079628774620520E+00
  -2.1076666111782623E+00  -2.1073701132748597E+00  -2.1070733847774883E+00  -2.1067764267068689E+00  -2.1064792400788286E+00
  -2.1061818259043310E+00  -2.1058841851895020E+00  -2.1055863189356616E+00  -2.1052882281393490E+00  -2.1049899137923536E+00
  -2.1046913768817399E+00  -2.1043926183898796E+00  -2.1040936392944731E+00  -2.1037944405685818E+00  -2.1034950231806522E+00
  -2.1031953880945458E+00  -2.1028955362695623E+00  -2.1025954686604695E+00  -2.1022951862175261E+00  -2.1019946898865105E+00
  -2.1016939806087471E+00  -2.1013930593211301E+00  -2.1010919269561494E+00  -2.1007905844419175E+00  -2.1004890327021943E+00
  -2.1001872726564113E+00  -2.0998853052196966E+00  -2.0995831313029010E+00  -2.0992807518126209E+00  -2.0989781676512238E+00
  -2.0986753797168718E+00  -2.0983723889035462E+00  -2.0980691961010707E+00  -2.0977658021951373E+00  -2.0974622080673258E+00
  -2.0971584145951314E+00  -2.0968544226519850E+00  -2.0965502331072776E+00  -2.0962458468263838E+00  -2.0959412646706821E+00
  -2.0956364874975812E+00  -2.0953315161605386E+00  -2.0950263515090857E+00  -2.0947209943888487E+00  -2.0944154456415713E+00
  -2.0941097061051352E+00  -2.0938037766135831E+00  -2.0934976579971400E+00  -2.0931913510822349E+00  -2.0928848566915201E+00
  -2.0925781756438955E+00  -2.0922713087545270E+00  -2.0919642568348684E+00  -2.0916570206926814E+00  -2.0913496011320585E+00
  -2.0910419989534388E+00  -2.0907342149536334E+00  -2.0904262499258417E+00  -2.0901181046596746E+00  -2.0898097799411701E+00
  -2.0895012765528187E+00  -2.0891925952735768E+00  -2.0888837368788917E+00  -2.0885747021407184E+00  -2.0882654918275363E+00
  -2.0879561067043744E+00  -2.0876465475328247E+00  -2.0873368150710645E+00  -2.0870269100738725E+00  -2.0867168332926487E+00
  -2.0864065854754350E+00  -2.0860961673669278E+00  -2.0857855797085034E+00  -2.0854748232382292E+00  -2.0851638986908880E+00
  -2.0848528067979912E+00  -2.0845415482877985E+00  -2.0842301238853347E+00  -2.0839185343124091E+00  -2.0836067802876301E+00
  -2.0832948625264254E+00  -2.0829827817410576E+00  -2.0826705386406386E+00  -2.0823581339311539E+00  -2.0820455683154715E+00
  -2.0817328424933632E+00  -2.0814199571615206E+00  -2.0811069130135698E+00  -2.0807937107400911E+00  -2.0804803510286312E+00
  -2.0801668345637223E+00  -2.0798531620268981E+00  -2.0795393340967085E+00  -2.0792253514487364E+00  -2.0789112147556121E+00
  -2.0785969246870324E+00  -2.0782824819097709E+00  -2.0779678870876994E+00  -2.0776531408817989E+00  -2.0773382439501757E+00
  -2.0770231969480788E+00  -2.0767080005279124E+00  -2.0763926553392524E+00  -2.0760771620288603E+00  -2.0757615212406995E+00
  -2.0754457336159478E+00  -2.0751297997930145E+00  -2.0748137204075534E+00  -2.0744974960924778E+00  -2.0741811274779738E+00
  -2.0738646151915150E+00  -2.0735479598578794E+00  -2.0732311620991597E+00  -2.0729142225347781E+00  -2.0725971417815012E+00
  -2.0722799204534543E+00  -2.0719625591621331E+00  -2.0716450585164199E+00  -2.0713274191225950E+00  -2.0710096415843502E+00
  -2.0706917265028038E+00  -2.0703736744765138E+00  -2.0700554861014884E+00  -2.0697371619712031E+00  -2.0694187026766100E+00
  -2.0691001088061545E+00  -2.0687813809457851E+00  -2.0684625196789672E+00  -2.0681435255866969E+00  -2.0678243992475114E+00
  -2.0675051412375045E+00  -2.0671857521303365E+00  -2.0668662324972487E+00  -2.0665465829070735E+00  -2.0662268039262481E+00
  -2.0659068961188281E+00  -2.0655868600464964E+00  -2.0652666962685782E+00  -2.0649464053420497E+00  -2.0646259878215543E+00
  -2.0643054442594106E+00  -2.0639847752056264E+00  -2.0636639812079096E+00  -2.0633430628116791E+00  -2.0630220205600782E+00
  -2.0627008549939854E+00  -2.0623795666520239E+00  -2.0620581560705746E+00  -2.0617366237837893E+00  -2.0614149703235980E+00
  -2.0610931962197219E+00  -2.0607713019996847E+00  -2.0604492881888246E+00  -2.0601271553103015E+00  -2.0598049038851141E+00
  -2.0594825344321017E+00  -2.0591600474679654E+00  -2.0588374435072705E+00  -2.0585147230624612E+00  -2.0581918866438693E+00
  -2.0578689347597270E+00  -2.0575458679161751E+00  -2.0572226866172740E+00  -2.0568993913650133E+00  -2.0565759826593246E+00
  -2.0562524609980883E+00  -2.0559288268771474E+00  -2.0556050807903121E+00  -2.0552812232293771E+00  -2.0549572546841257E+00
  -2.0546331756423402E+00  -2.0543089865898159E+00  -2.0539846880103667E+00  -2.0536602803858357E+00  -2.0533357641961065E+00
  -2.0530111399191111E+00  -2.0526864080308389E+00  -2.0523615690053498E+00  -2.0520366233147795E+00  -2.0517115714293492E+00
  -2.0513864138173794E+00  -2.0510611509452930E+00  -2.0507357832776285E+00  -2.0504103112770480E+00  -2.0500847354043459E+00
  -2.0497590561184609E+00  -2.0494332738764784E+00  -2.0491073891336478E+00  -2.0487814023433826E+00  -2.0484553139572785E+00
  -2.0481291244251150E+00  -2.0478028341948655E+00  -2.0474764437127102E+00  -2.0471499534230384E+00  -2.0468233637684623E+00
  -2.0464966751898235E+00  -2.0461698881262009E+00  -2.0458430030149199E+00  -2.0455160202915614E+00  -2.0451889403899677E+00
  -2.0448617637422539E+00  -2.0445344907788150E+00  -2.0442071219283329E+00  -2.0438796576177856E+00  -2.0435520982724564E+00
  -2.0432244443159391E+00  -2.0428966961701489E+00  -2.0425688542553289E+00  -2.0422409189900570E+00  -2.0419128907912572E+00
  -2.0415847700742038E+00  -2.0412565572525314E+00  -2.0409282527382415E+00  -2.0405998569417112E+00  -2.0402713702716992E+00
  -2.0399427931353551E+00  -2.0396141259382268E+00  -2.0392853690842672E+00  -2.0389565229758420E+00  -2.0386275880137377E+00
  -2.0382985645971674E+00  -2.0379694531237806E+00  -2.0376402539896685E+00  -2.0373109675893719E+00  -2.0369815943158902E+00
  -2.0366521345606836E+00  -2.0363225887136869E+00  -2.0359929571633111E+00  -2.0356632402964538E+00  -2.0353334384985042E+00
  -2.0350035521533534E+00  -2.0346735816433954E+00  -2.0343435273495403E+00  -2.0340133896512178E+00  -2.0336831689263835E+00
  -2.0333528655515289E+00  -2.0330224799016854E+00  -2.0326920123504308E+00  -2.0323614632698992E+00  -2.0320308330307832E+00
  -2.0317001220023454E+00  -2.0313693305524190E+00  -2.0310384590474215E+00  -2.0307075078523540E+00  -2.0303764773308131E+00
  -2.0300453678449970E+00  -2.0297141797557052E+00  -2.0293829134223560E+00  -2.0290515692029825E+00  -2.0287201474542447E+00
  -2.0283886485314349E+00  -2.0280570727884819E+00  -2.0277254205779598E+00  -2.0273936922510920E+00  -2.0270618881577596E+00
  -2.0267300086465041E+00  -2.0263980540645390E+00  -2.0260660247577489E+00  -2.0257339210707004E+00  -2.0254017433466469E+00
  -2.0250694919275345E+00  -2.0247371671540071E+00  -2.0244047693654124E+00  -2.0240722988998101E+00  -2.0237397560939745E+00
  -2.0234071412834007E+00  -2.0230744548023138E+00  -2.0227416969836702E+00  -2.0224088681591650E+00  -2.0220759686592391E+00
  -2.0217429988130826E+00  -2.0214099589486416E+00  -2.0210768493926237E+00  -2.0207436704705035E+00  -2.0204104225065271E+00
  -2.0200771058237188E+00  -2.0197437207438869E+00  -2.0194102675876269E+00  -2.0190767466743309E+00  -2.0187431583221866E+00
  -2.0184095028481903E+00  -2.0180757805681466E+00  -2.0177419917966741E+00  -2.0174081368472159E+00  -2.0170742160320367E+00
  -2.0167402296622341E+00  -2.0164061780477427E+00  -2.0160720614973373E+00  -2.0157378803186381E+00  -2.0154036348181190E+00
  -2.0150693253011105E+00  -2.0147349520718016E+00  -2.0144005154332518E+00  -2.0140660156873889E+00  -2.0137314531350197E+00
  -2.0133968280758316E+00  -2.0130621408083971E+00  -2.0127273916301820E+00  -2.0123925808375467E+00  -2.0120577087257532E+00
  -2.0117227755889697E+00  -2.0113877817202725E+00  -2.0110527274116570E+00  -2.0107176129540347E+00  -2.0103824386372446E+00
  -2.0100472047500526E+00  -2.0097119115801614E+00  -2.0093765594142097E+00  -2.0090411485377806E+00  -2.0087056792354052E+00
  -2.0083701517905661E+00  -2.0080345664857040E+00  -2.0076989236022196E+00  -2.0073632234204810E+00  -2.0070274662198249E+00
  -2.0066916522785645E+00  -2.0063557818739897E+00  -2.0060198552823780E+00  -2.0056838727789912E+00  -2.0053478346380849E+00
  -2.0050117411329103E+00  -2.0046755925357225E+00  -2.0043393891177779E+00  -2.0040031311493451E+00  -2.0036668188997058E+00
  -2.0033304526371576E+00  -2.0029940326290245E+00  -2.0026575591416527E+00  -2.0023210324404221E+00  -2.0019844527897432E+00
  -2.0016478204530701E+00  -2.0013111356928959E+00  -2.0009743987707620E+00  -2.0006376099472618E+00  -2.0003007694820414E+00
  -1.9999638776338069E+00  -1.9996269346603286E+00  -1.9992899408184415E+00  -1.9989528963640526E+00  -1.9986158015521447E+00
  -1.9982786566367774E+00  -1.9979414618710940E+00  -1.9976042175073241E+00  -1.9972669237967873E+00  -1.9969295809898975E+00
  -1.9965921893361678E+00  -1.9962547490842109E+00  -1.9959172604817463E+00  -1.9955797237756026E+00  -1.9952421392117212E+00
  -1.9949045070351614E+00  -1.9945668274901009E+00  -1.9942291008198427E+00  -1.9938913272668179E+00  -1.9935535070725889E+00
  -1.9932156404778523E+00  -1.9928777277224439E+00  -1.9925397690453419E+00  -1.9922017646846706E+00  -1.9918637148777028E+00
  -1.9915256198608653E+00  -1.9911874798697395E+00  -1.9908492951390699E+00  -1.9905110659027612E+00  -1.9901727923938866E+00
  -1.9898344748446901E+00  -1.9894961134865874E+00  -1.9891577085501742E+00  -1.9888192602652244E+00  -1.9884807688606965E+00
  -1.9881422345647379E+00  -1.9878036576046851E+00  -1.9874650382070684E+00  -1.9871263765976170E+00  -1.9867876730012586E+00
  -1.9864489276421278E+00  -1.9861101407435635E+00  -1.9857713125281165E+00  -1.9854324432175503E+00  -1.9850935330328476E+00
  -1.9847545821942087E+00  -1.9844155909210588E+00  -1.9840765594320489E+00  -1.9837374879450593E+00  -1.9833983766772043E+00
  -1.9830592258448325E+00  -1.9827200356635335E+00  -1.9823808063481374E+00  -1.9820415381127203E+00  -1.9817022311706070E+00
  -1.9813628857343719E+00  -1.9810235020158458E+00  -1.9806840802261163E+00  -1.9803446205755306E+00  -1.9800051232737008E+00
  -1.9796655885295038E+00  -1.9793260165510875E+00  -1.9789864075458699E+00  -1.9786467617205470E+00  -1.9783070792810913E+00
  -1.9779673604327566E+00  -1.9776276053800805E+00  -1.9772878143268890E+00  -1.9769479874762947E+00  -1.9766081250307077E+00
  -1.9762682271918277E+00  -1.9759282941606577E+00  -1.9755883261374987E+00  -1.9752483233219571E+00  -1.9749082859129454E+00
  -1.9745682141086855E+00  -1.9742281081067121E+00  -1.9738879681038750E+00  -1.9735477942963398E+00  -1.9732075868795944E+00
  -1.9728673460484505E+00  -1.9725270719970436E+00  -1.9721867649188387E+00  -1.9718464250066323E+00  -1.9715060524525541E+00
  -1.9711656474480710E+00  -1.9708252101839885E+00  -1.9704847408504538E+00  -1.9701442396369597E+00  -1.9698037067323431E+00
  -1.9694631423247946E+00  -1.9691225466018532E+00  -1.9687819197504148E+00  -1.9684412619567317E+00  -1.9681005734064156E+00
  -1.9677598542844419E+00  -1.9674191047751488E+00  -1.9670783250622446E+00  -1.9667375153288043E+00  -1.9663966757572773E+00
  -1.9660558065294869E+00  -1.9657149078266341E+00  -1.9653739798292995E+00  -1.9650330227174448E+00  -1.9646920366704181E+00
  -1.9643510218669524E+00  -1.9640099784851719E+00  -1.9636689067025905E+00  -1.9633278066961182E+00  -1.9629866786420598E+00
  -1.9626455227161206E+00  -1.9623043390934050E+00  -1.9619631279484231E+00  -1.9616218894550892E+00  -1.9612806237867257E+00
  -1.9609393311160672E+00  -1.9605980116152597E+00  -1.9602566654558629E+00  -1.9599152928088568E+00  -1.9595738938446381E+00
  -1.9592324687330274E+00  -1.9588910176432677E+00  -1.9585495407440299E+00  -1.9582080382034117E+00  -1.9578665101889423E+00
  -1.9575249568675834E+00  -1.9571833784057338E+00  -1.9568417749692251E+00  -1.9565001467233336E+00  -1.9561584938327732E+00
  -1.9558168164617029E+00  -1.9554751147737286E+00  -1.9551333889319018E+00  -1.9547916390987259E+00  -1.9544498654361564E+00
  -1.9541080681056036E+00  -1.9537662472679327E+00  -1.9534244030834675E+00  -1.9530825357119932E+00  -1.9527406453127587E+00
  -1.9523987320444753E+00  -1.9520567960653219E+00  -1.9517148375329472E+00  -1.9513728566044686E+00  -1.9510308534364778E+00
  -1.9506888281850419E+00  -1.9503467810057034E+00  -1.9500047120534840E+00  -1.9496626214828863E+00  -1.9493205094478960E+00
  -1.9489783761019834E+00  -1.9486362215981046E+00  -1.9482940460887053E+00  -1.9479518497257213E+00  -1.9476096326605812E+00
  -1.9472673950442079E+00  -1.9469251370270211E+00  -1.9465828587589373E+00  -1.9462405603893742E+00  -1.9458982420672515E+00
  -1.9455559039409924E+00  -1.9452135461585269E+00  -1.9448711688672902E+00  -1.9445287722142302E+00  -1.9441863563458028E+00
  -1.9438439214079799E+00  -1.9435014675462470E+00  -1.9431589949056054E+00  -1.9428165036305771E+00  -1.9424739938652040E+00
  -1.9421314657530484E+00  -1.9417889194371989E+00  -1.9414463550602683E+00  -1.9411037727643983E+00  -1.9407611726912588E+00
  -1.9404185549820507E+00  -1.9400759197775088E+00  -1.9397332672179011E+00  -1.9393905974430330E+00  -1.9390479105922482E+00
  -1.9387052068044277E+00  -1.9383624862179973E+00  -1.9380197489709239E+00  -1.9376769952007187E+00  -1.9373342250444419E+00
  -1.9369914386387002E+00  -1.9366486361196498E+00  -1.9363058176229986E+00  -1.9359629832840095E+00  -1.9356201332374985E+00
  -1.9352772676178389E+00  -1.9349343865589608E+00  -1.9345914901943562E+00  -1.9342485786570776E+00  -1.9339056520797397E+00
  -1.9335627105945226E+00  -1.9332197543331724E+00  -1.9328767834270038E+00  -1.9325337980069002E+00  -1.9321907982033162E+00
  -1.9318477841462784E+00  -1.9315047559653880E+00  -1.9311617137898227E+00  -1.9308186577483368E+00  -1.9304755879692619E+00
  -1.9301325045805136E+00  -1.9297894077095854E+00  -1.9294462974835571E+00  -1.9291031740290923E+00  -1.9287600374724407E+00
  -1.9284168879394401E+00  -1.9280737255555194E+00  -1.9277305504456961E+00  -1.9273873627345817E+00  -1.9270441625463806E+00
  -1.9267009500048939E+00  -1.9263577252335180E+00  -1.9260144883552495E+00  -1.9256712394926829E+00  -1.9253279787680160E+00
  -1.9249847063030470E+00  -1.9246414222191803E+00  -1.9242981266374244E+00  -1.9239548196783962E+00  -1.9236115014623199E+00
  -1.9232681721090299E+00  -1.9229248317379717E+00  -1.9225814804682035E+00  -1.9222381184183988E+00  -1.9218947457068440E+00
  -1.9215513624514449E+00  -1.9212079687697237E+00  -1.9208645647788232E+00  -1.9205211505955067E+00  -1.9201777263361601E+00
  -1.9198342921167926E+00  -1.9194908480530390E+00  -1.9191473942601596E+00  -1.9188039308530433E+00  -1.9184604579462086E+00
  -1.9181169756538019E+00  -1.9177734840896035E+00  -1.9174299833670256E+00  -1.9170864735991164E+00  -1.9167429548985577E+00
  -1.9163994273776692E+00  -1.9160558911484087E+00  -1.9157123463223731E+00  -1.9153687930108012E+00  -1.9150252313245730E+00
  -1.9146816613742113E+00  -1.9143380832698855E+00  -1.9139944971214096E+00  -1.9136509030382438E+00  -1.9133073011294985E+00
  -1.9129636915039321E+00  -1.9126200742699562E+00  -1.9122764495356317E+00  -1.9119328174086749E+00  -1.9115891779964560E+00
  -1.9112455314060011E+00  -1.9109018777439937E+00  -1.9105582171167732E+00  -1.9102145496303422E+00  -1.9098708753903622E+00
  -1.9095271945021550E+00  -1.9091835070707084E+00  -1.9088398132006712E+00  -1.9084961129963607E+00  -1.9081524065617592E+00
  -1.9078086940005163E+00  -1.9074649754159514E+00  -1.9071212509110538E+00  -1.9067775205884845E+00  -1.9064337845505750E+00
  -1.9060900428993330E+00  -1.9057462957364393E+00  -1.9054025431632511E+00  -1.9050587852808010E+00  -1.9047150221898030E+00
  -1.9043712539906468E+00  -1.9040274807834046E+00  -1.9036837026678286E+00  -1.9033399197433558E+00  -1.9029961321091038E+00
  -1.9026523398638779E+00  -1.9023085431061679E+00  -1.9019647419341494E+00  -1.9016209364456893E+00  -1.9012771267383406E+00
  -1.9009333129093475E+00  -1.9005894950556452E+00  -1.9002456732738631E+00  -1.8999018476603209E+00  -1.8995580183110357E+00
  -1.8992141853217182E+00  -1.8988703487877772E+00  -1.8985265088043175E+00  -1.8981826654661451E+00  -1.8978388188677628E+00
  -1.8974949691033760E+00  -1.8971511162668913E+00  -1.8968072604519193E+00  -1.8964634017517725E+00  -1.8961195402594697E+00
  -1.8957756760677353E+00  -1.8954318092690010E+00  -1.8950879399554053E+00  -1.8947440682187962E+00  -1.8944001941507320E+00
  -1.8940563178424832E+00  -1.8937124393850295E+00  -1.8933685588690641E+00  -1.8930246763849958E+00  -1.8926807920229474E+00
  -1.8923369058727568E+00  -1.8919930180239792E+00  -1.8916491285658887E+00  -1.8913052375874773E+00  -1.8909613451774561E+00
  -1.8906174514242569E+00  -1.8902735564160345E+00  -1.8899296602406654E+00  -1.8895857629857495E+00  -1.8892418647386120E+00
  -1.8888979655863025E+00  -1.8885540656155975E+00  -1.8882101649130001E+00  -1.8878662635647430E+00  -1.8875223616567864E+00
  -1.8871784592748224E+00  -1.8868345565042723E+00  -1.8864906534302910E+00  -1.8861467501377629E+00  -1.8858028467113106E+00
  -1.8854589432352888E+00  -1.8851150397937873E+00  -1.8847711364706341E+00  -1.8844272333493921E+00  -1.8840833305133644E+00
  -1.8837394280455924E+00  -1.8833955260288575E+00  -1.8830516245456816E+00  -1.8827077236783292E+00  -1.8823638235088060E+00
  -1.8820199241188624E+00  -1.8816760255899931E+00  -1.8813321280034363E+00  -1.8809882314401780E+00  -1.8806443359809510E+00
  -1.8803004417062334E+00  -1.8799565486962555E+00  -1.8796126570309952E+00  -1.8792687667901791E+00  -1.8789248780532877E+00
  -1.8785809908995523E+00  -1.8782371054079559E+00  -1.8778932216572362E+00  -1.8775493397258858E+00  -1.8772054596921519E+00
  -1.8768615816340364E+00  -1.8765177056293008E+00  -1.8761738317554622E+00  -1.8758299600897963E+00  -1.8754860907093396E+00
  -1.8751422236908863E+00  -1.8747983591109945E+00  -1.8744544970459809E+00  -1.8741106375719265E+00  -1.8737667807646754E+00
  -1.8734229266998352E+00  -1.8730790754527789E+00  -1.8727352270986444E+00  -1.8723913817123372E+00  -1.8720475393685285E+00
  -1.8717037001416585E+00  -1.8713598641059361E+00  -1.8710160313353379E+00  -1.8706722019036142E+00  -1.8703283758842826E+00
  -1.8699845533506358E+00  -1.8696407343757353E+00  -1.8692969190324191E+00  -1.8689531073932988E+00  -1.8686092995307577E+00
  -1.8682654955169586E+00  -1.8679216954238380E+00  -1.8675778993231118E+00  -1.8672341072862697E+00  -1.8668903193845829E+00
  -1.8665465356891020E+00  -1.8662027562706551E+00  -1.8658589811998534E+00  -1.8655152105470876E+00  -1.8651714443825316E+00
  -1.8648276827761414E+00  -1.8644839257976569E+00  -1.8641401735166019E+00  -1.8637964260022852E+00  -1.8634526833238019E+00
  -1.8631089455500323E+00  -1.8627652127496444E+00  -1.8624214849910925E+00  -1.8620777623426226E+00  -1.8617340448722648E+00
  -1.8613903326478449E+00  -1.8610466257369740E+00  -1.8607029242070576E+00  -1.8603592281252908E+00  -1.8600155375586633E+00
  -1.8596718525739555E+00  -1.8593281732377451E+00  -1.8589844996164004E+00  -1.8586408317760885E+00  -1.8582971697827686E+00
  -1.8579535137022005E+00  -1.8576098635999374E+00  -1.8572662195413334E+00  -1.8569225815915391E+00  -1.8565789498155052E+00
  -1.8562353242779817E+00  -1.8558917050435193E+00  -1.8555480921764695E+00  -1.8552044857409868E+00  -1.8548608858010254E+00
  -1.8545172924203455E+00  -1.8541737056625087E+00  -1.8538301255908822E+00  -1.8534865522686377E+00  -1.8531429857587522E+00
  -1.8527994261240095E+00  -1.8524558734269998E+00  -1.8521123277301204E+00  -1.8517687890955763E+00  -1.8514252575853836E+00
  -1.8510817332613636E+00  -1.8507382161851518E+00  -1.8503947064181909E+00  -1.8500512040217356E+00  -1.8497077090568537E+00
  -1.8493642215844237E+00  -1.8490207416651381E+00  -1.8486772693595015E+00  -1.8483338047278335E+00  -1.8479903478302691E+00
  -1.8476468987267571E+00  -1.8473034574770630E+00  -1.8469600241407700E+00  -1.8466165987772756E+00  -1.8462731814457969E+00
  -1.8459297722053687E+00  -1.8455863711148444E+00  -1.8452429782328976E+00  -1.8448995936180206E+00  -1.8445562173285277E+00
  -1.8442128494225529E+00  -1.8438694899580530E+00  -1.8435261389928059E+00  -1.8431827965844134E+00  -1.8428394627903004E+00
  -1.8424961376677145E+00  -1.8421528212737308E+00  -1.8418095136652450E+00  -1.8414662148989822E+00  -1.8411229250314931E+00
  -1.8407796441191528E+00  -1.8404363722181656E+00  -1.8400931093845641E+00  -1.8397498556742069E+00  -1.8394066111427838E+00
  -1.8390633758458121E+00  -1.8387201498386418E+00  -1.8383769331764503E+00  -1.8380337259142479E+00  -1.8376905281068763E+00
  -1.8373473398090088E+00  -1.8370041610751513E+00  -1.8366609919596426E+00  -1.8363178325166569E+00  -1.8359746828002006E+00
  -1.8356315428641157E+00  -1.8352884127620797E+00  -1.8349452925476046E+00  -1.8346021822740406E+00  -1.8342590819945734E+00
  -1.8339159917622263E+00  -1.8335729116298600E+00  -1.8332298416501744E+00  -1.8328867818757075E+00  -1.8325437323588376E+00
  -1.8322006931517811E+00  -1.8318576643065969E+00  -1.8315146458751830E+00  -1.8311716379092786E+00  -1.8308286404604670E+00
  -1.8304856535801717E+00  -1.8301426773196596E+00  -1.8297997117300406E+00  -1.8294567568622699E+00  -1.8291138127671447E+00
  -1.8287708794953093E+00  -1.8284279570972508E+00  -1.8280850456233040E+00  -1.8277421451236495E+00  -1.8273992556483136E+00
  -1.8270563772471713E+00  -1.8267135099699441E+00  -1.8263706538662021E+00  -1.8260278089853639E+00  -1.8256849753766964E+00
  -1.8253421530893181E+00  -1.8249993421721953E+00  -1.8246565426741463E+00  -1.8243137546438388E+00  -1.8239709781297928E+00
  -1.8236282131803805E+00  -1.8232854598438268E+00  -1.8229427181682067E+00  -1.8225999882014519E+00  -1.8222572699913455E+00
  -1.8219145635855254E+00  -1.8215718690314842E+00  -1.8212291863765688E+00  -1.8208865156679839E+00  -1.8205438569527861E+00
  -1.8202012102778919E+00  -1.8198585756900727E+00  -1.8195159532359586E+00  -1.8191733429620358E+00  -1.8188307449146499E+00
  -1.8184881591400044E+00  -1.8181455856841613E+00  -1.8178030245930432E+00  -1.8174604759124322E+00  -1.8171179396879702E+00
  -1.8167754159651597E+00  -1.8164329047893655E+00  -1.8160904062058123E+00  -1.8157479202595888E+00  -1.8154054469956440E+00
  -1.8150629864587913E+00  -1.8147205386937069E+00  -1.8143781037449296E+00  -1.8140356816568648E+00  -1.8136932724737798E+00
  -1.8133508762398078E+00  -1.8130084929989476E+00  -1.8126661227950640E+00  -1.8123237656718867E+00  -1.8119814216730139E+00
  -1.8116390908419082E+00  -1.8112967732219021E+00  -1.8109544688561947E+00  -1.8106121777878526E+00  -1.8102699000598119E+00
  -1.8099276357148786E+00  -1.8095853847957257E+00  -1.8092431473448980E+00  -1.8089009234048090E+00  -1.8085587130177436E+00
  -1.8082165162258588E+00  -1.8078743330711804E+00  -1.8075321635956079E+00  -1.8071900078409115E+00  -1.8068478658487348E+00
  -1.8065057376605955E+00  -1.8061636233178817E+00  -1.8058215228618573E+00  -1.8054794363336597E+00  -1.8051373637743000E+00
  -1.8047953052246668E+00  -1.8044532607255190E+00  -1.8041112303174964E+00  -1.8037692140411115E+00  -1.8034272119367536E+00
  -1.8030852240446895E+00  -1.8027432504050618E+00  -1.8024012910578919E+00  -1.8020593460430783E+00  -1.8017174154003985E+00
  -1.8013754991695061E+00  -1.8010335973899365E+00  -1.8006917101011028E+00  -1.8003498373422981E+00  -1.8000079791526959E+00
  -1.7996661355713490E+00  -1.7993243066371918E+00  -1.7989824923890398E+00  -1.7986406928655887E+00  -1.7982989081054177E+00
  -1.7979571381469872E+00  -1.7976153830286399E+00  -1.7972736427886014E+00  -1.7969319174649816E+00  -1.7965902070957720E+00
  -1.7962485117188502E+00  -1.7959068313719757E+00  -1.7955651660927952E+00  -1.7952235159188372E+00  -1.7948818808875187E+00
  -1.7945402610361392E+00  -1.7941986564018868E+00  -1.7938570670218341E+00  -1.7935154929329413E+00  -1.7931739341720556E+00
  -1.7928323907759107E+00  -1.7924908627811289E+00  -1.7921493502242198E+00  -1.7918078531415806E+00  -1.7914663715694994E+00
  -1.7911249055441512E+00  -1.7907834551016011E+00  -1.7904420202778037E+00  -1.7901006011086040E+00  -1.7897591976297362E+00
  -1.7894178098768261E+00  -1.7890764378853898E+00  -1.7887350816908352E+00  -1.7883937413284614E+00  -1.7880524168334604E+00
  -1.7877111082409136E+00  -1.7873698155857991E+00  -1.7870285389029841E+00  -1.7866872782272314E+00  -1.7863460335931960E+00
  -1.7860048050354269E+00  -1.7856635925883682E+00  -1.7853223962863558E+00  -1.7849812161636243E+00  -1.7846400522543004E+00
  -1.7842989045924067E+00  -1.7839577732118628E+00  -1.7836166581464818E+00  -1.7832755594299752E+00  -1.7829344770959501E+00
  -1.7825934111779116E+00  -1.7822523617092600E+00  -1.7819113287232955E+00  -1.7815703122532143E+00  -1.7812293123321115E+00
  -1.7808883289929800E+00  -1.7805473622687116E+00  -1.7802064121920980E+00  -1.7798654787958288E+00  -1.7795245621124942E+00
  -1.7791836621745842E+00  -1.7788427790144878E+00  -1.7785019126644965E+00  -1.7781610631568001E+00  -1.7778202305234920E+00
  -1.7774794147965653E+00  -1.7771386160079146E+00  -1.7767978341893378E+00  -1.7764570693725334E+00  -1.7761163215891036E+00
  -1.7757755908705521E+00  -1.7754348772482877E+00  -1.7750941807536205E+00  -1.7747535014177653E+00  -1.7744128392718403E+00
  -1.7740721943468678E+00  -1.7737315666737752E+00  -1.7733909562833949E+00  -1.7730503632064623E+00  -1.7727097874736202E+00
  -1.7723692291154169E+00  -1.7720286881623046E+00  -1.7716881646446443E+00  -1.7713476585927010E+00  -1.7710071700366470E+00
  -1.7706666990065629E+00  -1.7703262455324356E+00  -1.7699858096441583E+00  -1.7696453913715338E+00  -1.7693049907442715E+00
  -1.7689646077919901E+00  -1.7686242425442169E+00  -1.7682838950303861E+00  -1.7679435652798434E+00  -1.7676032533218431E+00
  -1.7672629591855473E+00  -1.7669226829000320E+00  -1.7665824244942780E+00  -1.7662421839971814E+00  -1.7659019614375444E+00
  -1.7655617568440856E+00  -1.7652215702454293E+00  -1.7648814016701140E+00  -1.7645412511465897E+00  -1.7642011187032183E+00
  -1.7638610043682728E+00  -1.7635209081699397E+00  -1.7631808301363177E+00  -1.7628407702954194E+00  -1.7625007286751688E+00
  -1.7621607053034045E+00  -1.7618207002078794E+00  -1.7614807134162580E+00  -1.7611407449561221E+00  -1.7608007948549647E+00
  -1.7604608631401963E+00  -1.7601209498391404E+00  -1.7597810549790367E+00  -1.7594411785870396E+00  -1.7591013206902197E+00
  -1.7587614813155628E+00  -1.7584216604899716E+00  -1.7580818582402651E+00  -1.7577420745931778E+00  -1.7574023095753621E+00
  -1.7570625632133881E+00  -1.7567228355337412E+00  -1.7563831265628262E+00  -1.7560434363269648E+00  -1.7557037648523965E+00
  -1.7553641121652797E+00  -1.7550244782916913E+00  -1.7546848632576262E+00  -1.7543452670889996E+00  -1.7540056898116445E+00
  -1.7536661314513133E+00  -1.7533265920336794E+00  -1.7529870715843352E+00  -1.7526475701287925E+00  -1.7523080876924846E+00
  -1.7519686243007655E+00  -1.7516291799789090E+00  -1.7512897547521096E+00  -1.7509503486454849E+00  -1.7506109616840719E+00
  -1.7502715938928315E+00  -1.7499322452966439E+00  -1.7495929159203136E+00  -1.7492536057885655E+00  -1.7489143149260495E+00
  -1.7485750433573364E+00  -1.7482357911069202E+00  -1.7478965581992190E+00  -1.7475573446585735E+00  -1.7472181505092481E+00
  -1.7468789757754319E+00  -1.7465398204812372E+00  -1.7462006846507012E+00  -1.7458615683077852E+00  -1.7455224714763753E+00
  -1.7451833941802826E+00  -1.7448443364432435E+00  -1.7445052982889195E+00  -1.7441662797408981E+00  -1.7438272808226929E+00
  -1.7434883015577414E+00  -1.7431493419694100E+00  -1.7428104020809900E+00  -1.7424714819156999E+00  -1.7421325814966848E+00
  -1.7417937008470159E+00  -1.7414548399896941E+00  -1.7411159989476455E+00  -1.7407771777437242E+00  -1.7404383764007130E+00
  -1.7400995949413223E+00  -1.7397608333881911E+00  -1.7394220917638854E+00  -1.7390833700909019E+00  -1.7387446683916652E+00
  -1.7384059866885289E+00  -1.7380673250037759E+00  -1.7377286833596186E+00  -1.7373900617781988E+00  -1.7370514602815892E+00
  -1.7367128788917914E+00  -1.7363743176307378E+00  -1.7360357765202905E+00  -1.7356972555822436E+00  -1.7353587548383211E+00
  -1.7350202743101781E+00  -1.7346818140194005E+00  -1.7343433739875067E+00  -1.7340049542359466E+00  -1.7336665547861005E+00
  -1.7333281756592815E+00  -1.7329898168767359E+00  -1.7326514784596416E+00  -1.7323131604291075E+00  -1.7319748628061784E+00
  -1.7316365856118290E+00  -1.7312983288669690E+00  -1.7309600925924404E+00  -1.7306218768090189E+00  -1.7302836815374154E+00
  -1.7299455067982721E+00  -1.7296073526121667E+00  -1.7292692189996108E+00  -1.7289311059810510E+00  -1.7285930135768681E+00
  -1.7282549418073774E+00  -1.7279168906928284E+00  -1.7275788602534083E+00  -1.7272408505092371E+00  -1.7269028614803710E+00
  -1.7265648931868027E+00  -1.7262269456484600E+00  -1.7258890188852063E+00  -1.7255511129168426E+00  -1.7252132277631049E+00
  -1.7248753634436667E+00  -1.7245375199781374E+00  -1.7241996973860647E+00  -1.7238618956869312E+00  -1.7235241149001590E+00
  -1.7231863550451068E+00  -1.7228486161410699E+00  -1.7225108982072828E+00  -1.7221732012629181E+00  -1.7218355253270847E+00
  -1.7214978704188315E+00  -1.7211602365571455E+00  -1.7208226237609516E+00  -1.7204850320491150E+00  -1.7201474614404384E+00
  -1.7198099119536645E+00  -1.7194723836074748E+00  -1.7191348764204903E+00  -1.7187973904112719E+00  -1.7184599255983211E+00
  -1.7181224820000776E+00  -1.7177850596349222E+00  -1.7174476585211771E+00  -1.7171102786771024E+00  -1.7167729201209017E+00
  -1.7164355828707172E+00  -1.7160982669446327E+00  -1.7157609723606746E+00  -1.7154236991368079E+00  -1.7150864472909411E+00
  -1.7147492168409240E+00  -1.7144120078045477E+00  -1.7140748201995446E+00  -1.7137376540435907E+00  -1.7134005093543034E+00
  -1.7130633861492433E+00  -1.7127262844459115E+00  -1.7123892042617543E+00  -1.7120521456141597E+00  -1.7117151085204587E+00
  -1.7113780929979256E+00  -1.7110410990637781E+00  -1.7107041267351777E+00  -1.7103671760292287E+00  -1.7100302469629811E+00
  -1.7096933395534260E+00  -1.7093564538175008E+00  -1.7090195897720866E+00  -1.7086827474340087E+00  -1.7083459268200376E+00
  -1.7080091279468879E+00  -1.7076723508312193E+00  -1.7073355954896359E+00  -1.7069988619386882E+00  -1.7066621501948718E+00
  -1.7063254602746265E+00  -1.7059887921943391E+00  -1.7056521459703418E+00  -1.7053155216189126E+00  -1.7049789191562750E+00
  -1.7046423385986003E+00  -1.7043057799620047E+00  -1.7039692432625513E+00  -1.7036327285162502E+00  -1.7032962357390575E+00
  -1.7029597649468777E+00  -1.7026233161555611E+00  -1.7022868893809058E+00  -1.7019504846386564E+00  -1.7016141019445066E+00
  -1.7012777413140965E+00  -1.7009414027630148E+00  -1.7006050863067972E+00  -1.7002687919609294E+00  -1.6999325197408417E+00
  -1.6995962696619169E+00  -1.6992600417394841E+00  -1.6989238359888206E+00  -1.6985876524251540E+00  -1.6982514910636608E+00
  -1.6979153519194645E+00  -1.6975792350076406E+00  -1.6972431403432111E+00  -1.6969070679411504E+00  -1.6965710178163798E+00
  -1.6962349899837728E+00  -1.6958989844581507E+00  -1.6955630012542859E+00  -1.6952270403869016E+00  -1.6948911018706696E+00
  -1.6945551857202130E+00  -1.6942192919501058E+00  -1.6938834205748723E+00  -1.6935475716089881E+00  -1.6932117450668789E+00
  -1.6928759409629217E+00  -1.6925401593114457E+00  -1.6922044001267300E+00  -1.6918686634230067E+00  -1.6915329492144582E+00
  -1.6911972575152197E+00  -1.6908615883393774E+00  -1.6905259417009701E+00  -1.6901903176139881E+00  -1.6898547160923751E+00
  -1.6895191371500264E+00  -1.6891835808007896E+00  -1.6888480470584650E+00  -1.6885125359368069E+00  -1.6881770474495208E+00
  -1.6878415816102663E+00  -1.6875061384326564E+00  -1.6871707179302557E+00  -1.6868353201165842E+00  -1.6864999450051139E+00
  -1.6861645926092725E+00  -1.6858292629424392E+00  -1.6854939560179476E+00  -1.6851586718490870E+00  -1.6848234104490987E+00
  -1.6844881718311795E+00  -1.6841529560084809E+00  -1.6838177629941076E+00  -1.6834825928011199E+00  -1.6831474454425326E+00
  -1.6828123209313162E+00  -1.6824772192803947E+00  -1.6821421405026487E+00  -1.6818070846109117E+00  -1.6814720516179762E+00
  -1.6811370415365874E+00  -1.6808020543794473E+00  -1.6804670901592123E+00  -1.6801321488884962E+00  -1.6797972305798687E+00
   5.0803612526640507E+01   5.0803612526640507E+01   5.0803612526640507E+01   5.0803612526640507E+01   5.0803612526640507E+01
   5.0803612526640507E+01   5.0803612526640507E+01   5.0803612526640507E+01   5.0803612526640507E+01   5.0803612526640507E+01
   5.0803612526640507E+01   5.0803612526640507E+01   5.0803612526640507E+01   5.0803612526640507E+01   5.0803612526640507E+01
   5.0803612526640507E+01   5.0803612526640507E+01   5.0803612526640507E+01   5.0803612526640507E+01   5.0803612526640507E+01
   5.0803612526640507E+01   5.0803612526640507E+01   5.0803612526640507E+01   5.0803612526640507E+01   5.0803612526640507E+01
   5.0803612526640507E+01   5.0803612526640507E+01   5.0803612526640507E+01   5.0803612526640507E+01   5.0803612526640507E+01
   5.0803612526640507E+01   5.0803612526640507E+01   5.0803612526640507E+01   5.0803612526640507E+01   5.0803612526640507E+01
   5.0803612526640507E+01   5.0803612526640507E+01   5.0803612526640507E+01   5.0803612526640507E+01   5.0803612526640507E+01
   5.0803612526640507E+01   5.0803612526640507E+01   5.0803612526640507E+01   5.0803612526640507E+01   5.0803612526640507E+01
   5.0803612526640507E+01   5.0803612526640507E+01   5.0803612526640507E+01   5.0803612526640507E+01   5.0803612526640507E+01
   5.0803612526640507E+01   5.0803612526640507E+01   5.0803612526640507E+01   5.0803612526640507E+01   5.0803612526640507E+01
   5.0803612526640507E+01   5.0803612526640507E+01   5.0803612526640507E+01   5.0803612526640507E+01   5.0803612526640507E+01
   5.0803612526640507E+01   5.0803612526640507E+01   5.0803612526640507E+01   5.0803612526640507E+01   5.0803612526640507E+01
   5.0803612526640507E+01   5.0803612526640507E+01   5.0803612526640507E+01   5.0803612526640507E+01   5.0803612526640507E+01
   5.0803612526640507E+01   5.0803612526640507E+01   5.0803612526640507E+01   5.0803612526640507E+01   5.0803612526640507E+01
   5.0803612526640507E+01   5.0803612526640507E+01   5.0803612526640507E+01   5.0803612526640507E+01   5.0803612526640507E+01
   5.0803612526640507E+01   5.0803612526640507E+01   5.0803612526640507E+01   5.0803612526640507E+01   5.0803612526640507E+01
   5.0803612526640507E+01   5.0803612526640507E+01   5.0803612526640507E+01   5.0803612526640507E+01   5.0803612526640507E+01
   5.0803612526640507E+01   5.0803612526640507E+01   5.0803612526640507E+01   5.0803612526640507E+01   5.0803612526640507E+01
   5.0803612526640507E+01   5.0803612526640507E+01   5.0803612526640507E+01   5.0803612526640507E+01   5.0803612526640507E+01
   5.0803612526640507E+01   5.0803612526640507E+01   5.0803612526640507E+01   5.0803612526640507E+01   5.0803612526640507E+01
   5.0803612526640507E+01   5.0803612526640507E+01   5.0803612526640507E+01   5.0803612526640507E+01   5.0803612526640507E+01
   5.0803612526640507E+01   5.0803612526640507E+01   5.0803612526640507E+01   5.0803612526640507E+01   5.0803612526640507E+01
   5.0803612526640507E+01   5.0803612526640507E+01   5.0803612526640507E+01   5.0803612526640507E+01   5.0803612526640507E+01
   5.0803612526640507E+01   5.0803612526640507E+01   5.0803612526640507E+01   5.0803612526640507E+01   5.0803612526640507E+01
   5.0803612526640507E+01   5.0803612526640507E+01   5.0803612526640507E+01   5.0803612526640507E+01   5.0803612526640507E+01
   5.0803612526640507E+01   5.0803612526640507E+01   5.0803612526640507E+01   5.0803612526640507E+01   5.0803612526640507E+01
   5.0803612526640507E+01   5.0803612526640507E+01   5.0803612526640507E+01   5.0803612526640507E+01   5.0803612526640507E+01
   5.0803612526640507E+01   5.0803612526640507E+01   5.0803612526640507E+01   5.0803612526640507E+01   5.0803612526640507E+01
   5.0803612526640507E+01   5.0803612526640507E+01   5.0803612526640507E+01   5.0803612526640507E+01   5.0803612526640507E+01
   5.0803612526640507E+01   5.0803612526640507E+01   5.0803612526640507E+01   5.0803612526640507E+01   5.0803612526640507E+01
   5.0803612526640507E+01   5.0803612526640507E+01   5.0607136313373751E+01   5.0333340680491609E+01   5.0061025501472088E+01
   4.9790182808884211E+01   4.9520804676561248E+01   4.9252883219453672E+01   4.8986410593479995E+01   4.8721378995375311E+01
   4.8457780662537992E+01   4.8195607872874632E+01   4.7934852944643012E+01   4.7675508236293609E+01   4.7417566146309532E+01
   4.7161019113044908E+01   4.6905859614562232E+01   4.6652080168468132E+01   4.6399673331748112E+01   4.6148631700600376E+01
   4.5898947910268312E+01   4.5650614634872490E+01   4.5403624587241502E+01   4.5157970518742047E+01   4.4913645219108609E+01
   4.4670641516272234E+01   4.4428952276188781E+01   4.4188570402666734E+01   4.3949488837194579E+01   4.3711700558767767E+01
   4.3475198583715226E+01   4.3239975965525893E+01   4.3006025794674571E+01   4.2773341198448115E+01   4.2541915340770991E+01
   4.2311741422031126E+01   4.2082812678905462E+01   4.1855122384185528E+01   4.1628663846603146E+01   4.1403430410656163E+01
   4.1179415456434128E+01   4.0956612399444325E+01   4.0735014690437808E+01   4.0514615815235715E+01   4.0295409294555689E+01
   4.0077388683838720E+01   3.9860547573076083E+01   3.9644879586636762E+01   3.9430378383094919E+01   3.9217037655058100E+01
   3.9004851128995490E+01   3.8793812565066624E+01   3.8583915756950603E+01   3.8375154531675804E+01   3.8167522749449716E+01
   3.7961014303489549E+01   3.7755623119853226E+01   3.7551343157270914E+01   3.7348168406976889E+01   3.7146092892542214E+01
   3.6945110669707709E+01   3.6745215826217539E+01   3.6546402481653473E+01   3.6348664787269577E+01   3.6151996925827589E+01
   3.5956393111432739E+01   3.5761847589370419E+01   3.5568354635943287E+01   3.5375908558308936E+01   3.5184503694318373E+01
   3.4994134412355095E+01   3.4804795111174613E+01   3.4616480219744872E+01   3.4429184197087189E+01   3.4242901532117912E+01
   3.4057626743490694E+01   3.3873354379439455E+01   3.3690079017622004E+01   3.3507795264964443E+01   3.3326497757506033E+01
   3.3146181160245028E+01   3.2966840166984902E+01   3.2788469500181492E+01   3.2611063910790740E+01   3.2434618178117191E+01
   3.2259127109663041E+01   3.2084585540978033E+01   3.1910988335510027E+01   3.1738330384456251E+01   3.1566606606615164E+01
   3.1395811948239189E+01   3.1225941382888088E+01   3.1056989911282979E+01   3.0888952561161069E+01   3.0721824387131200E+01
   3.0555600470529981E+01   3.0390275919278675E+01   3.0225845867740688E+01   3.0062305476580093E+01   2.9899649932620346E+01
   2.9737874448704094E+01   2.9576974263553595E+01   2.9416944641631751E+01   2.9257780873003885E+01   2.9099478273200226E+01
   2.8942032183079181E+01   2.8785437968691021E+01   2.8629691021142577E+01   2.8474786756462471E+01   2.8320720615467064E+01
   2.8167488063627008E+01   2.8015084590934656E+01   2.7863505711772000E+01   2.7712746964779384E+01   2.7562803912724771E+01
   2.7413672142373905E+01   2.7265347264360955E+01   2.7117824913059852E+01   2.6971100746456372E+01   2.6825170446020930E+01
   2.6680029716581810E+01   2.6535674286199288E+01   2.6392099906040364E+01   2.6249302350254080E+01   2.6107277415847523E+01
   2.5966020922562539E+01   2.5825528712753020E+01   2.5685796651262859E+01   2.5546820625304576E+01   2.5408596544338586E+01
   2.5271120339953061E+01   2.5134387965744427E+01   2.4998395397198582E+01   2.4863138631572703E+01   2.4728613687777560E+01
   2.4594816606260629E+01   2.4461743448889784E+01   2.4329390298837531E+01   2.4197753260465888E+01   2.4066828459211962E+01
   2.3936612041474053E+01   2.3807100174498359E+01   2.3678289046266325E+01   2.3550174865382616E+01   2.3422753860963638E+01
   2.3296022282526629E+01   2.3169976399879456E+01   2.3044612503010896E+01   2.2919926901981547E+01   2.2795915926815319E+01
   2.2672575927391563E+01   2.2549903273337623E+01   2.2427894353922127E+01   2.2306545577948814E+01   2.2185853373650868E+01
   2.2065814188585822E+01   2.1946424489531179E+01   2.1827680762380350E+01   2.1709579512039397E+01   2.1592117262324116E+01
   2.1475290555857811E+01   2.1359095953969657E+01   2.1243530036593398E+01   2.1128589402166785E+01   2.1014270667531552E+01
   2.0900570467833827E+01   2.0787485456425092E+01   2.0675012304763783E+01   2.0563147702317327E+01   2.0451888356464700E+01
   2.0341230992399616E+01   2.0231172353034037E+01   2.0121709198902487E+01   2.0012838308066637E+01   1.9904556476020463E+01
   1.9796860515596048E+01   1.9689747256869691E+01   1.9583213547068684E+01   1.9477256250478533E+01   1.9371872248350630E+01
   1.9267058438810487E+01   1.9162811736766528E+01   1.9059129073819193E+01   1.8956007398170662E+01   1.8853443674535082E+01
   1.8751434884049225E+01   1.8649978024183604E+01   1.8549070108654114E+01   1.8448708167334239E+01   1.8348889246167474E+01
   1.8249610407080514E+01   1.8150868727896722E+01   1.8052661302250186E+01   1.7954985239500086E+01   1.7857837664645690E+01
   1.7761215718241719E+01   1.7665116556314178E+01   1.7569537350276665E+01   1.7474475286847110E+01   1.7379927567964963E+01
   1.7285891410708878E+01   1.7192364047214781E+01   1.7099342724594379E+01   1.7006824704854189E+01   1.6914807264814890E+01
   1.6823287696031226E+01   1.6732263304712276E+01   1.6641731411642137E+01   1.6551689352101103E+01   1.6462134475787213E+01
   1.6373064146738248E+01   1.6284475743254138E+01   1.6196366657819858E+01   1.6108734297028565E+01   1.6021576081505355E+01
   1.5934889445831317E+01   1.5848671838468047E+01   1.5762920721682494E+01   1.5677633571472304E+01   1.5592807877491518E+01
   1.5508441142976725E+01   1.5424530884673484E+01   1.5341074632763299E+01   1.5258069930790931E+01   1.5175514335592059E+01
   1.5093405417221373E+01   1.5011740758881075E+01   1.4930517956849737E+01   1.4849734620411519E+01   1.4769388371785842E+01
   1.4689476846057378E+01   1.4609997691106461E+01   1.4530948567539811E+01   1.4452327148621743E+01   1.4374131120205638E+01
   1.4296358180665807E+01   1.4219006040829822E+01   1.4142072423911069E+01   1.4065555065441727E+01   1.3989451713206188E+01
   1.3913760127174706E+01   1.3838478079437465E+01   1.3763603354139024E+01   1.3689133747413095E+01   1.3615067067317668E+01
   1.3541401133770485E+01   1.3468133778484873E+01   1.3395262844905943E+01   1.3322786188147106E+01   1.3250701674926912E+01
   1.3179007183506306E+01   1.3107700603626142E+01   1.3036779836445067E+01   1.2966242794477791E+01   1.2896087401533558E+01
   1.2826311592655145E+01   1.2756913314057973E+01   1.2687890523069749E+01   1.2619241188070271E+01   1.2550963288431669E+01
   1.2483054814458932E+01   1.2415513767330719E+01   1.2348338159040539E+01   1.2281526012338295E+01   1.2215075360671985E+01
   1.2148984248129890E+01   1.2083250729382984E+01   1.2017872869627677E+01   1.1952848744528847E+01   1.1888176440163239E+01
   1.1823854052963075E+01   1.1759879689660076E+01   1.1696251467229727E+01   1.1632967512835808E+01   1.1570025963775334E+01
   1.1507424967423665E+01   1.1445162681180037E+01   1.1383237272413261E+01   1.1321646918407847E+01   1.1260389806310309E+01
   1.1199464133075818E+01   1.1138868105415135E+01   1.1078599939741830E+01   1.1018657862119770E+01   1.0959040108210916E+01
   1.0899744923223391E+01   1.0840770561859836E+01   1.0782115288266008E+01   1.0723777375979735E+01   1.0665755107880047E+01
   1.0608046776136680E+01   1.0550650682159786E+01   1.0493565136549933E+01   1.0436788459048371E+01   1.0380318978487622E+01
   1.0324155032742237E+01   1.0268294968679889E+01   1.0212737142112729E+01   1.0157479917748983E+01   1.0102521669144805E+01
   1.0047860778656437E+01   9.9934956373925434E+00   9.9394246451669215E+00   9.8856462104513287E+00   9.8321587503287127E+00
   9.7789606904465458E+00   9.7260504649705446E+00   9.6734265165385498E+00   9.6210872962146965E+00   9.5690312634438186E+00
   9.5172568860061109E+00   9.4657626399720165E+00   9.4145470096573867E+00   9.3636084875788548E+00   9.3129455744094845E+00
   9.2625567789346110E+00   9.2124406180079674E+00   9.1625956165080407E+00   9.1130203072946099E+00   9.0637132311656110E+00
   9.0146729368141560E+00   8.9658979807858312E+00   8.9173869274362012E+00   8.8691383488885531E+00   8.8211508249918662E+00
   8.7734229432790283E+00   8.7259532989252353E+00   8.6787404947066591E+00   8.6317831409593158E+00   8.5850798555381722E+00
   8.5386292637764338E+00   8.4924299984451235E+00   8.4464806997128079E+00   8.4007800151055907E+00   8.3553265994672827E+00
   8.3101191149198375E+00   8.2651562308239441E+00   8.2204366237398787E+00   8.1759589773885502E+00   8.1317219826127385E+00
   8.0877243373385745E+00   8.0439647465372381E+00   8.0004419221867860E+00   7.9571545832342823E+00   7.9141014555580815E+00
   7.8712812719303287E+00   7.8286927719796378E+00   7.7863347021540346E+00   7.7442058156840146E+00   7.7023048725458843E+00
   7.6606306394252401E+00   7.6191818896806671E+00   7.5779574033076385E+00   7.5369559669026165E+00   7.4961763736273239E+00
   7.4556174231732140E+00   7.4152779217261626E+00   7.3751566819313226E+00   7.3352525228581538E+00   7.2955642699656957E+00
   7.2560907550679783E+00   7.2168308162996366E+00   7.1777832980817120E+00   7.1389470510876514E+00   7.1003209322094669E+00
   7.0619038045240874E+00   7.0236945372599093E+00   6.9856920057634833E+00   6.9478950914664503E+00   6.9103026818525919E+00
   6.8729136704250884E+00   6.8357269566739447E+00   6.7987414460436248E+00   6.7619560499007996E+00   6.7253696855023231E+00
   6.6889812759633580E+00   6.6527897502256863E+00   6.6167940430261707E+00   6.5809930948654145E+00   6.5453858519765538E+00
   6.5099712662942713E+00   6.4747482954239173E+00   6.4397159026108550E+00   6.4048730567099179E+00   6.3702187321550836E+00
   6.3357519089292733E+00   6.3014715725343278E+00   6.2673767139611520E+00   6.2334663296600201E+00   6.1997394215110209E+00
   6.1661949967946921E+00   6.1328320681628048E+00   6.0996496536092888E+00   6.0666467764413303E+00   6.0338224652506396E+00
   6.0011757538848327E+00   5.9687056814190154E+00   5.9364112921274952E+00   5.9042916354556372E+00   5.8723457659918967E+00
   5.8405727434400010E+00   5.8089716325912484E+00   5.7775415032969999E+00   5.7462814304412984E+00   5.7151904939136333E+00
   5.6842677785818596E+00   5.6535123742652669E+00   5.6229233757077877E+00   5.5924998825513379E+00   5.5622409993093411E+00
   5.5321458353403479E+00   5.5022135048218379E+00   5.4724431267241282E+00   5.4428338247844623E+00   5.4133847274811968E+00
   5.3840949680081680E+00   5.3549636842491690E+00   5.3259900187525675E+00   5.2971731187060760E+00   5.2685121359116609E+00
   5.2400062267605545E+00   5.2116545522084285E+00   5.1834562777507172E+00   5.1554105733980338E+00   5.1275166136517454E+00
   5.0997735774796817E+00   5.0721806482919582E+00   5.0447370139169552E+00   5.0174418665773999E+00   4.9902944028665903E+00
   4.9632938237247535E+00   4.9364393344155273E+00   4.9097301445025670E+00   4.8831654678262666E+00   4.8567445224806400E+00
   4.8304665307902939E+00   4.8043307192875355E+00   4.7783363186896155E+00   4.7524825638760761E+00   4.7267686938662399E+00
   4.7011939517967996E+00   4.6757575848995501E+00   4.6504588444792256E+00   4.6252969858914659E+00   4.6002712685209026E+00
   4.5753809557593410E+00   4.5506253149841065E+00   4.5260036175364595E+00   4.5015151387001575E+00   4.4771591576801111E+00
   4.4529349575811974E+00   4.4288418253871233E+00   4.4048790519394592E+00   4.3810459319167627E+00   4.3573417638138192E+00
   4.3337658499209830E+00   4.3103174963036590E+00   4.2869960127818576E+00   4.2638007129098998E+00   4.2407309139561926E+00
   4.2177859368831516E+00   4.1949651063271993E+00   4.1722677505788957E+00   4.1496932015631671E+00   4.1272407948196319E+00
   4.1049098694830572E+00   4.0826997682638977E+00   4.0606098374289479E+00   4.0386394267821055E+00   4.0167878896452320E+00
   3.9950545828391189E+00   3.9734388666645502E+00   3.9519401048834841E+00   3.9305576647003160E+00   3.9092909167432550E+00
   3.8881392350458057E+00   3.8671019970283416E+00   3.8461785834797664E+00   3.8253683785393084E+00   3.8046707696783781E+00
   3.7840851476825459E+00   3.7636109066336108E+00   3.7432474438917613E+00   3.7229941600778393E+00   3.7028504590557048E+00
   3.6828157479146784E+00   3.6628894369520926E+00   3.6430709396559409E+00   3.6233596726876054E+00   3.6037550558646894E+00
   3.5842565121439458E+00   3.5648634676042921E+00   3.5455753514299051E+00   3.5263915958934313E+00   3.5073116363392756E+00
   3.4883349111669788E+00   3.4694608618146812E+00   3.4506889327426991E+00   3.4320185714171494E+00   3.4134492282937119E+00
   3.3949803568014341E+00   3.3766114133266498E+00   3.3583418571969781E+00   3.3401711506654173E+00   3.3220987588945019E+00
   3.3041241499405682E+00   3.2862467947381009E+00   3.2684661670841582E+00   3.2507817436228752E+00   3.2331930038300674E+00
   3.2156994299979114E+00   3.1983005072197002E+00   3.1809957233746937E+00   3.1637845691130377E+00   3.1466665378407757E+00
   3.1296411257049437E+00   3.1127078315787302E+00   3.0958661570467294E+00   3.0791156063902672E+00   3.0624556865728234E+00
   3.0458859072255011E+00   3.0294057806326098E+00   3.0130148217172943E+00   2.9967125480272760E+00   2.9804984797206315E+00
   2.9643721395516858E+00   2.9483330528569538E+00   2.9323807475411732E+00   2.9165147540634151E+00   2.9007346054232475E+00
   2.8850398371470121E+00   2.8694299872741280E+00   2.8539045963435168E+00   2.8384632073800597E+00   2.8231053658811649E+00
   2.8078306198033731E+00   2.7926385195490626E+00   2.7775286179532137E+00   2.7625004702702483E+00   2.7475536341609317E+00
   2.7326876696793598E+00   2.7179021392600102E+00   2.7031966077048577E+00   2.6885706421705704E+00   2.6740238121557645E+00
   2.6595556894883323E+00   2.6451658483128497E+00   2.6308538650780284E+00   2.6166193185242554E+00   2.6024617896711901E+00
   2.5883808618054411E+00   2.5743761204682887E+00   2.5604471534434916E+00   2.5465935507451549E+00   2.5328149046056643E+00
   2.5191108094636734E+00   2.5054808619521793E+00   2.4919246608866410E+00   2.4784418072531733E+00   2.4650319041968070E+00
   2.4516945570097994E+00   2.4384293731200204E+00   2.4252359620794044E+00   2.4121139355524459E+00   2.3990629073047742E+00
   2.3860824931917888E+00   2.3731723111473464E+00   2.3603319811725174E+00   2.3475611253244053E+00   2.3348593677050120E+00
   2.3222263344501890E+00   2.3096616537186150E+00   2.2971649556808664E+00   2.2847358725085232E+00   2.2723740383633424E+00
   2.2600790893864979E+00   2.2478506636878572E+00   2.2356884013353455E+00   2.2235919443443390E+00   2.2115609366671314E+00
   2.1995950241824547E+00   2.1876938546850582E+00   2.1758570778753379E+00   2.1640843453490266E+00   2.1523753105869394E+00
   2.1407296289447801E+00   2.1291469576429849E+00   2.1176269557566401E+00   2.1061692842054494E+00   2.0947736057437480E+00
   2.0834395849505820E+00   2.0721668882198290E+00   2.0609551837503814E+00   2.0498041415363857E+00   2.0387134333575214E+00
   2.0276827327693412E+00   2.0167117150936651E+00   2.0058000574090249E+00   1.9949474385411554E+00   1.9841535390535434E+00
   1.9734180412380233E+00   1.9627406291054312E+00   1.9521209883762942E+00   1.9415588064715923E+00   1.9310537725035453E+00
   1.9206055772664703E+00   1.9102139132276819E+00   1.8998784745184296E+00   1.8895989569249085E+00   1.8793750578792960E+00
   1.8692064764508489E+00   1.8590929133370440E+00   1.8490340708547726E+00   1.8390296529315735E+00   1.8290793650969202E+00
   1.8191829144735545E+00   1.8093400097688694E+00   1.7995503612663248E+00   1.7898136808169289E+00   1.7801296818307548E+00
   1.7704980792685028E+00   1.7609185896331148E+00   1.7513909309614235E+00   1.7419148228158581E+00   1.7324899862761909E+00
   1.7231161439313227E+00   1.7137930198711200E+00   1.7045203396782926E+00   1.6952978304203223E+00   1.6861252206414195E+00
   1.6770022403545388E+00   1.6679286210334343E+00   1.6589040956047534E+00   1.6499283984401723E+00   1.6410012653485830E+00
   1.6321224335683147E+00   1.6232916417593972E+00   1.6145086299958757E+00   1.6057731397581518E+00   1.5970849139253771E+00
   1.5884436967678917E+00   1.5798492339396866E+00   1.5713012724709212E+00   1.5627995607604825E+00   1.5543438485685712E+00
   1.5459338870093418E+00   1.5375694285435730E+00   1.5292502269713883E+00   1.5209760374249988E+00   1.5127466163615080E+00
   1.5045617215557321E+00   1.4964211120930773E+00   1.4883245483624457E+00   1.4802717920491832E+00   1.4722626061280693E+00
   1.4642967548563304E+00   1.4563740037667123E+00   1.4484941196605707E+00   1.4406568706010099E+00   1.4328620259060558E+00
   1.4251093561418695E+00   1.4173986331159880E+00   1.4097296298706092E+00   1.4021021206759181E+00   1.3945158810234326E+00
   1.3869706876194010E+00   1.3794663183782292E+00   1.3720025524159452E+00   1.3645791700436931E+00   1.3571959527612696E+00
   1.3498526832506919E+00   1.3425491453698044E+00   1.3352851241459103E+00   1.3280604057694509E+00   1.3208747775877068E+00
   1.3137280280985413E+00   1.3066199469441753E+00   1.2995503249049940E+00   1.2925189538933890E+00   1.2855256269476361E+00
   1.2785701382258021E+00   1.2716522829996828E+00   1.2647718576487792E+00   1.2579286596543064E+00   1.2511224875932290E+00
   1.2443531411323367E+00   1.2376204210223407E+00   1.2309241290920181E+00   1.2242640682423698E+00   1.2176400424408254E+00
   1.2110518567154696E+00   1.2044993171493041E+00   1.1979822308745436E+00   1.1915004060669323E+00   1.1850536519401005E+00
   1.1786417787399528E+00   1.1722645977390758E+00   1.1659219212311864E+00   1.1596135625256105E+00   1.1533393359417810E+00
   1.1470990568037758E+00   1.1408925414348809E+00   1.1347196071521888E+00   1.1285800722612125E+00   1.1224737560505431E+00
   1.1164004787865323E+00   1.1103600617079961E+00   1.1043523270209579E+00   1.0983770978934115E+00   1.0924341984501187E+00
   1.0865234537674335E+00   1.0806446898681503E+00   1.0747977337163823E+00   1.0689824132124714E+00   1.0631985571879201E+00
   1.0574459954003526E+00   1.0517245585285082E+00   1.0460340781672499E+00   1.0403743868226152E+00   1.0347453179068784E+00
   1.0291467057336519E+00   1.0235783855130069E+00   1.0180401933466239E+00   1.0125319662229690E+00   1.0070535420124922E+00
   1.0016047594628563E+00   9.9618545819419324E-01   9.9079547869437901E-01   9.8543466231433852E-01   9.8010285126338026E-01
   9.7479988860454492E-01   9.6952561824998906E-01   9.6427988495639039E-01   9.5906253432037580E-01   9.5387341277398119E-01
   9.4871236758012256E-01   9.4357924682810834E-01   9.3847389942916104E-01   9.3339617511197182E-01   9.2834592441827779E-01
   9.2332299869845957E-01   9.1832725010716865E-01   9.1335853159897318E-01   9.0841669692402605E-01   9.0350160062376439E-01
   8.9861309802662370E-01   8.9375104524378068E-01   8.8891529916491507E-01   8.8410571745399913E-01   8.7932215854510576E-01
   8.7456448163823841E-01   8.6983254669518739E-01   8.6512621443540838E-01   8.6044534633191794E-01   8.5578980460722009E-01
   8.5115945222924316E-01   8.4655415290730907E-01   8.4197377108812133E-01   8.3741817195176926E-01   8.3288722140776150E-01
   8.2838078609107502E-01   8.2389873335823327E-01   8.1944093128339235E-01   8.1500724865446150E-01   8.1059755496923636E-01
   8.0621172043155942E-01   8.0184961594749127E-01   7.9751111312151601E-01   7.9319608425275279E-01   7.8890440233119852E-01
   7.8463594103398704E-01   7.8039057472166617E-01   7.7616817843449970E-01   7.7196862788878440E-01   7.6779179947318932E-01
   7.6363757024511425E-01   7.5950581792706884E-01   7.5539642090306869E-01   7.5130925821505334E-01   7.4724420955932369E-01
   7.4320115528299269E-01   7.3917997638046606E-01   7.3518055448992969E-01   7.3120277188986482E-01   7.2724651149557729E-01
   7.2331165685574927E-01   7.1939809214900330E-01   7.1550570218049014E-01   7.1163437237849525E-01   7.0778398879105753E-01
   7.0395443808261116E-01   7.0014560753064548E-01   6.9635738502238087E-01   6.9258965905146130E-01   6.8884231871466695E-01
   6.8511525370864312E-01   6.8140835432664926E-01   6.7772151145531789E-01   6.7405461657144183E-01   6.7040756173876670E-01
   6.6678023960481014E-01   6.6317254339769183E-01   6.5958436692298372E-01   6.5601560456057639E-01   6.5246615126155771E-01
   6.4893590254511668E-01   6.4542475449545456E-01   6.4193260375871775E-01   6.3845934753994560E-01   6.3500488360003338E-01
   6.3156911025271445E-01   6.2815192636155170E-01   6.2475323133695360E-01   6.2137292513319675E-01   6.1801090824547200E-01
   6.1466708170694040E-01   6.1134134708580945E-01   6.0803360648241866E-01   6.0474376252634565E-01   6.0147171837352453E-01
   5.9821737770338135E-01   5.9498064471598056E-01   5.9176142412919075E-01   5.8855962117586380E-01   5.8537514160102511E-01
   5.8220789165908382E-01   5.7905777811105363E-01   5.7592470822178909E-01   5.7280858975723670E-01   5.6970933098169940E-01
   5.6662684065511371E-01   5.6356102803034380E-01   5.6051180285048630E-01   5.5747907534619234E-01   5.5446275623299845E-01
   5.5146275670867617E-01   5.4847898845059107E-01   5.4551136361307562E-01   5.4255979482481775E-01   5.3962419518626037E-01
   5.3670447826701329E-01   5.3380055810328120E-01   5.3091234919530028E-01   5.2803976650479112E-01   5.2518272545242128E-01
   5.2234114191528258E-01   5.1951493222437939E-01   5.1670401316213033E-01   5.1390830195988202E-01   5.1112771629543208E-01
   5.0836217429056840E-01   5.0561159450861903E-01   5.0287589595201032E-01   5.0015499805984109E-01   4.9744882070546820E-01
   4.9475728419409903E-01   4.9208030926040053E-01   4.8941781706611637E-01   4.8676972919769618E-01   4.8413596766393741E-01
   4.8151645489363337E-01   4.7891111373323841E-01   4.7631986744453775E-01   4.7374263970233238E-01   4.7117935459213206E-01
   4.6862993660785912E-01   4.6609431064956364E-01   4.6357240202114708E-01   4.6106413642809607E-01   4.5856943997522720E-01
   4.5608823916444130E-01   4.5362046089248620E-01   4.5116603244873221E-01   4.4872488151295076E-01   4.4629693615311111E-01
   4.4388212482317724E-01   4.4148037636092058E-01   4.3909161998573831E-01   4.3671578529648097E-01   4.3435280226929096E-01
   4.3200260125544515E-01   4.2966511297920990E-01   4.2734026853570367E-01   4.2502799938876601E-01   4.2272823736883597E-01
   4.2044091467084022E-01   4.1816596385208343E-01   4.1590331783015327E-01   4.1365290988082837E-01   4.1141467363599382E-01
   4.0918854308156782E-01   4.0697445255542930E-01   4.0477233674535956E-01   4.0258213068698356E-01   4.0040376976172376E-01
   3.9823718969475724E-01   3.9608232655298098E-01   3.9393911674298238E-01   3.9180749700901640E-01   3.8968740443098743E-01
   3.8757877642243915E-01   3.8548155072854901E-01   3.8339566542412751E-01   3.8132105891162332E-01   3.7925766991913601E-01
   3.7720543749842800E-01   3.7516430102294868E-01   3.7313420018585663E-01   3.7111507499805124E-01   3.6910686578620611E-01
   3.6710951319080837E-01   3.6512295816419932E-01   3.6314714196862208E-01   3.6118200617427237E-01   3.5922749265735021E-01
   3.5728354359811759E-01   3.5535010147895907E-01   3.5342710908244501E-01   3.5151450948939672E-01   3.4961224607695512E-01
   3.4772026251665183E-01   3.4583850277248362E-01   3.4396691109898520E-01   3.4210543203930904E-01   3.4025401042330172E-01
   3.3841259136558610E-01   3.3658112026364145E-01   3.3475954279588677E-01   3.3294780491976422E-01   3.3114585286982290E-01
   3.2935363315580302E-01   3.2757109256072037E-01   3.2579817813895168E-01   3.2403483721431853E-01   3.2228101737817083E-01
   3.2053666648747131E-01   3.1880173266287593E-01   3.1707616428681695E-01   3.1535991000158087E-01   3.1365291870738732E-01
   3.1195513956046544E-01   3.1026652197112847E-01   3.0858701560184393E-01   3.0691657036530395E-01   3.0525513642249108E-01
   3.0360266418074228E-01   3.0195910429180745E-01   3.0032440764990576E-01   2.9869852538977948E-01   2.9708140888473961E-01
   2.9547300974471125E-01   2.9387327981427164E-01   2.9228217117068422E-01   2.9069963612192778E-01   2.8912562720471918E-01
   2.8756009718252973E-01   2.8600299904359722E-01   2.8445428599893030E-01   2.8291391148030637E-01   2.8138182913826187E-01
   2.7985799284007717E-01   2.7834235666775131E-01   2.7683487491597003E-01   2.7533550209006563E-01   2.7384419290396805E-01
   2.7236090227814697E-01   2.7088558533754548E-01   2.6941819740950212E-01   2.6795869402166600E-01   2.6650703089989863E-01
   2.6506316396616797E-01   2.6362704933642939E-01   2.6219864331849768E-01   2.6077790240990456E-01   2.5936478329574714E-01
   2.5795924284652233E-01   2.5656123811595022E-01   2.5517072633878185E-01   2.5378766492859661E-01   2.5241201147558506E-01
   2.5104372374431594E-01   2.4968275967149134E-01   2.4832907736368579E-01   2.4698263509507007E-01   2.4564339130512083E-01
   2.4431130459631292E-01   2.4298633373179554E-01   2.4166843763305318E-01   2.4035757537754818E-01   2.3905370619634697E-01
   2.3775678947172768E-01   2.3646678473477076E-01   2.3518365166293040E-01   2.3390735007758640E-01   2.3263783994157902E-01
   2.3137508135672247E-01   2.3011903456129865E-01   2.2886965992753203E-01   2.2762691795904158E-01   2.2639076928827442E-01
   2.2516117467391500E-01   2.2393809499827527E-01   2.2272149126466156E-01   2.2151132459471892E-01   2.2030755622575382E-01
   2.1911014750803148E-01   2.1791905990205235E-01   2.1673425497580395E-01   2.1555569440198755E-01   2.1438333995522138E-01
   2.1321715350922077E-01   2.1205709703394984E-01   2.1090313259275098E-01   2.0975522233944746E-01   2.0861332851542067E-01
   2.0747741344666198E-01   2.0634743954079640E-01   2.0522336928408283E-01   2.0410516523838476E-01   2.0299279003811585E-01
   2.0188620638715896E-01   2.0078537705575628E-01   1.9969026487737460E-01   1.9860083274554124E-01   1.9751704361065334E-01
   1.9643886047676071E-01   1.9536624639831970E-01   1.9429916447692061E-01   1.9323757785798840E-01   1.9218144972745407E-01
   1.9113074330840071E-01   1.9008542185768251E-01   1.8904544866251521E-01   1.8801078703704210E-01   1.8698140031887223E-01
   1.8595725186559384E-01   1.8493830505126019E-01   1.8392452326285252E-01   1.8291586989671660E-01   1.8191230835497596E-01
   1.8091380204192037E-01   1.7992031436037309E-01   1.7893180870803363E-01   1.7794824847380095E-01   1.7696959703407469E-01
   1.7599581774903728E-01   1.7502687395891767E-01   1.7406272898023589E-01   1.7310334610203346E-01   1.7214868858208596E-01
   1.7119871964310426E-01   1.7025340246892159E-01   1.6931270020067044E-01   1.6837657593295102E-01   1.6744499270999127E-01
   1.6651791352180162E-01   1.6559530130032701E-01   1.6467711891559739E-01   1.6376332917187900E-01   1.6285389480382953E-01
   1.6194877847265987E-01   1.6104794276230289E-01   1.6015135017559690E-01   1.5925896313048113E-01   1.5837074395621120E-01
   1.5748665488959532E-01   1.5660665807125637E-01   1.5573071554192172E-01   1.5485878923874732E-01   1.5399084099167834E-01
   1.5312683251985226E-01   1.5226672542804723E-01   1.5141048120318232E-01   1.5055806121087509E-01   1.4970942669205906E-01
   1.4886453875967082E-01   1.4802335839540900E-01   1.4718584644657440E-01   1.4635196362299532E-01   1.4552167049404652E-01
   1.4469492748576787E-01   1.4387169487809126E-01   1.4305193280218259E-01   1.4223560123790741E-01   1.4142266001142859E-01
   1.4061306879294472E-01   1.3980678709457811E-01   1.3900377426842297E-01   1.3820398950476301E-01   1.3740739183046827E-01
   1.3661394010758293E-01   1.3582359303211528E-01   1.3503630913303963E-01   1.3425204677152525E-01   1.3347076414040102E-01
   1.3269241926387274E-01   1.3191696999750277E-01   1.3114437402846882E-01   1.3037458887611295E-01   1.2960757189279937E-01
   1.2884328026509187E-01   1.2808167101527171E-01   1.2732270100320589E-01   1.2656632692858952E-01   1.2581250533357213E-01
   1.2506119260579215E-01   1.2431234498183304E-01   1.2356591855112027E-01   1.2282186926028252E-01   1.2208015291798910E-01
   1.2134072520029113E-01   1.2060354165647989E-01   1.1986855771549068E-01   1.1913572869286608E-01   1.1840500979830411E-01
   1.1767635614381468E-01   1.1694972275250204E-01   1.1622506456800084E-01   1.1550233646458395E-01   1.1478149325797121E-01
   1.1406248971685530E-01   1.1334528057517583E-01   1.1262982054515927E-01   1.1191606433115193E-01   1.1120396664427003E-01
   1.1049348221788767E-01   1.0978456582399182E-01   1.0907717229042135E-01   1.0837125651902012E-01   1.0766677350472187E-01
   1.0696367835559341E-01   1.0626192631385697E-01   1.0556147277791203E-01   1.0486227332538176E-01   1.0416428373719884E-01
   1.0346746002275593E-01   1.0277175844613438E-01   1.0207713555343052E-01   1.0138354820119790E-01   1.0069095358601410E-01
   9.9999309275193113E-02   9.9308573238647058E-02   9.8618703881913530E-02   9.7929660080349951E-02   9.7241401214507486E-02
   9.6553887206680802E-02   9.5867078558637880E-02   9.5180936390529103E-02   9.4495422480966290E-02   9.3810499308268430E-02
   9.3126130092858403E-02   9.2442278840800696E-02   9.1758910388457168E-02   9.1075990448240732E-02   9.0393485655441960E-02
   8.9711363616093623E-02   8.9029592955844547E-02   8.8348143369795212E-02   8.7666985673258632E-02   8.6986091853389083E-02
   8.6305435121630483E-02   8.5624989966919335E-02   8.4944732209577864E-02   8.4264639055828261E-02   8.3584689152844713E-02
   8.2904862644267052E-02   8.2225141226079490E-02   8.1545508202764114E-02   8.0865948543623736E-02   8.0186448939166155E-02
   7.9506997857438505E-02   7.8827585600184782E-02   7.8148204358704426E-02   7.7468848269275706E-02   7.6789513468005041E-02
   7.6110198144956134E-02   7.5430902597406355E-02   7.4751629282076765E-02   7.4072382866167366E-02   7.3393170277035347E-02
   7.2714000750338528E-02   7.2034885876472901E-02   7.1355839645116007E-02   7.0676878487698921E-02   6.9998021317613221E-02
   6.9319289567965653E-02   6.8640707226689412E-02   6.7962300868815023E-02   6.7284099685712487E-02   6.6606135511105058E-02
   6.5928442843668458E-02   6.5251058866019382E-02   6.4574023459908411E-02   6.3897379217433506E-02   6.3221171448090668E-02
   6.2545448181493005E-02   6.1870260165584473E-02   6.1195660860193200E-02   6.0521706425768047E-02   5.9848455707161269E-02
   5.9175970212320753E-02   5.8504314085773799E-02   5.7833554076797654E-02   5.7163759502177558E-02   5.6495002203478729E-02
   5.5827356498763581E-02   5.5160899128712332E-02   5.4495709197112080E-02   5.3831868105704367E-02   5.3169459483400933E-02
   5.2508569109888090E-02   5.1849284833672273E-02   5.1191696484627992E-02   5.0535895781141406E-02   4.9881976231953618E-02
   4.9230033032835560E-02   4.8580162958248567E-02   4.7932464248158335E-02   4.7287036490201925E-02   4.6643980497417449E-02
   4.6003398181777455E-02   4.5365392423775297E-02   4.4730066938344235E-02   4.4097526137398570E-02   4.3467874989307972E-02
   4.2841218875634184E-02   4.2217663445466791E-02   4.1597314467720602E-02   4.0980277681756459E-02   4.0366658646710532E-02
   3.9756562589917589E-02   3.9150094254825900E-02   3.8547357748809352E-02   3.7948456391278786E-02   3.7353492562509007E-02
   3.6762567553585555E-02   3.6175781417885931E-02   3.5593232824496605E-02   3.5015018913971914E-02   3.4441235156824242E-02
   3.3871975215133701E-02   3.3307330807652587E-02   3.2747391578764135E-02   3.2192244971649298E-02   3.1641976105988526E-02
   3.1096667660520855E-02   3.0556399760753063E-02   3.0021249872099181E-02   2.9491292698708049E-02   2.8966600088211149E-02
   2.8447240942607539E-02   2.7933281135469137E-02   2.7424783435636760E-02   2.6921807437541329E-02   2.6424409498269557E-02
   2.5932642681460876E-02   2.5446556708100743E-02   2.4966197914251642E-02   2.4491609215732010E-02   2.4022830079738211E-02
   2.3559896503370412E-02   2.3102840999009187E-02   2.2651692586459882E-02   2.2206476791763904E-02   2.1767215652555801E-02
   2.1333927729820557E-02   2.0906628125893573E-02   2.0485328508521614E-02   2.0070037140793529E-02   1.9660758916727972E-02
   1.9257495402296414E-02   1.8860244881647607E-02   1.8469002408284238E-02   1.8083759860939665E-02   1.7704506003888312E-02
   1.7331226551422989E-02   1.6963904236220018E-02   1.6602518881317040E-02   1.6247047475418538E-02   1.5897464251247689E-02
   1.5553740766661871E-02   1.5215845988247902E-02   1.4883746377120137E-02   1.4557405976641768E-02   1.4236786501799955E-02
   1.3921847429965493E-02   1.3612546092777567E-02   1.3308837768898874E-02   1.3010675777393529E-02   1.2718011571491441E-02
   1.2430794832506600E-02   1.2148973563691243E-02   1.1872494183812634E-02   1.1601301620253931E-02   1.1335339401446124E-02
   1.1074549748451902E-02   1.0818873665532669E-02   1.0568251029537871E-02   1.0322620677970754E-02   1.0081920495591245E-02
   9.8460874994316262E-03   9.6150579221069461E-03   9.3887672933157078E-03   9.1671505194363123E-03   8.9501419611323369E-03
   8.7376755088931935E-03   8.5296846564426598E-03   8.3261025719604375E-03   8.1268621670672909E-03   7.9318961635356320E-03
   7.7411371576945947E-03   7.5545176825054646E-03   7.3719702672932399E-03   7.1934274951237229E-03   7.0188220578260400E-03
   6.8480868086629471E-03   6.6811548126604423E-03   6.5179593946112224E-03   6.3584341847727965E-03   6.2025131622862294E-03
   6.0501306963437309E-03   5.9012215851403258E-03   5.7557210926452319E-03   5.6135649832346150E-03   5.4746895542283009E-03
   5.3390316663765496E-03   5.2065287723457622E-03   5.0771189432522838E-03   4.9507408932972490E-03   4.8273340025553405E-03
   4.7068383379723746E-03   4.5891946726267690E-03   4.4743445033120577E-03   4.3622300664962537E-03   4.2527943527157696E-03
   4.1459811194611441E-03   4.0417349026112192E-03   3.9400010264736369E-03   3.8407256124871839E-03   3.7438555866432547E-03
   3.6493386856810391E-03   3.5571234621116984E-03   3.4671592881256106E-03   3.3793963584352344E-03   3.2937856921064325E-03
   3.2102791334283633E-03   3.1288293518727398E-03   3.0493898411903878E-03   2.9719149176929741E-03   2.8963597177661510E-03
   2.8226801946586201E-03   2.7508331145913081E-03   2.6807760522282050E-03   2.6124673855503662E-03   2.5458662901720404E-03
   2.4809327331376412E-03   2.4176274662358276E-03   2.3559120188663203E-03   2.2957486904937709E-03   2.2371005427208762E-03
   2.1799313910126918E-03   2.1242057961017610E-03   2.0698890551033543E-03   2.0169471923679274E-03   1.9653469500972957E-03
   1.9150557787498072E-03   1.8660418272579988E-03   1.8182739330819357E-03   1.7717216121194705E-03   1.7263550484943563E-03
   1.6821450842412658E-03   1.6390632089064731E-03   1.5970815490815046E-03   1.5561728578861503E-03   1.5163105044165709E-03
   1.4774684631728432E-03   1.4396213034800331E-03   1.4027441789153541E-03   1.3668128167538191E-03   1.3318035074435224E-03
   1.2976930941211628E-03   1.2644589621778387E-03   1.2320790288839797E-03   1.2005317330823142E-03   1.1697960249564163E-03
   1.1398513558824107E-03   1.1106776683703853E-03   1.0822553861017186E-03   1.0545654040681259E-03   1.0275890788173090E-03
   1.0013082188102230E-03   9.7570507489391518E-04   9.5076233089399359E-04   9.2646309432994206E-04   9.0279088725652963E-04
   8.7972963723379404E-04   8.5726366842805090E-04   8.3537769284595692E-04   8.1405680170322807E-04   7.9328645692961842E-04
   7.7305248281109989E-04   7.5334105777038053E-04   7.3413870628623800E-04   7.1543229095221610E-04   6.9720900467494453E-04
   6.7945636301201481E-04   6.6216219664944639E-04   6.4531464401824273E-04   6.2890214404977979E-04   6.1291342906923531E-04
   5.9733751782646604E-04   5.8216370866337344E-04   5.6738157281679730E-04   5.5298094785591583E-04   5.3895193125283697E-04
   5.2528487408526510E-04   5.1197037486974120E-04   4.9899927352414710E-04   4.8636264545790674E-04   4.7405179578834079E-04
   4.6205825368162914E-04   4.5037376681661640E-04   4.3899029596987268E-04   4.2790000972017756E-04   4.1709527927075846E-04
   4.0656867338739820E-04   3.9631295345063432E-04   3.8632106862024714E-04   3.7658615111010272E-04   3.6710151157157215E-04
   3.5786063458357871E-04   3.4885717424747593E-04   3.4008494988478307E-04   3.3153794183599501E-04   3.2321028735851030E-04
   3.1509627662184311E-04   3.0719034879826766E-04   2.9948708824698792E-04   2.9198122079006036E-04   2.8466761007816253E-04
   2.7754125404445471E-04   2.7059728144468524E-04   2.6383094848178676E-04   2.5723763551318662E-04   2.5081284383906427E-04
   2.4455219256988347E-04   2.3845141557140521E-04   2.3250635848561088E-04   2.2671297582575715E-04   2.2106732814401470E-04
   2.1556557927002816E-04   2.1020399361881860E-04   2.0497893356647844E-04   1.9988685689206734E-04   1.9492431428427920E-04
   1.9008794691128950E-04   1.8537448405239463E-04   1.8078074078997416E-04   1.7630361576033787E-04   1.7194008896213612E-04
   1.6768721962087931E-04   1.6354214410832635E-04   1.5950207391534263E-04   1.5556429367700591E-04   1.5172615924866493E-04
   1.4798509583172534E-04   1.4433859614795892E-04   1.4078421866112195E-04   1.3731958584477585E-04   1.3394238249510459E-04
   1.3065035408767393E-04   1.2744130517701051E-04   1.2431309783794551E-04   1.2126365014768483E-04   1.1829093470756975E-04
   1.1539297720355345E-04   1.1256785500440168E-04   1.0981369579667170E-04   1.0712867625553746E-04   1.0451102075054933E-04
   1.0195900008544594E-04   9.9470930271135374E-05   9.7045171331015906E-05   9.4680126137794459E-05   9.2374239280998654E-05
   9.0125995964393662E-05   8.7933920932530796E-05   8.5796577425676057E-05   8.3712566162388863E-05   8.1680524349022295E-05
   7.9699124715461561E-05   7.7767074576406861E-05   7.5883114917539668E-05   7.4046019505923002E-05   7.2254594024001635E-05
   7.0507675226588721E-05   6.8804130120227609E-05   6.7142855164354100E-05   6.5522775493677629E-05   6.3942844161226481E-05
   6.2402041401516631E-05   6.0899373913301371E-05   5.9433874161408920E-05   5.8004599697132626E-05   5.6610632496716462E-05
   5.5251078317427810E-05   5.3925066070772452E-05   5.2631747212389969E-05   5.1370295148180552E-05   5.0139904656250765E-05
   4.8939791324233056E-05   4.7769191001597178E-05   4.6627359266530567E-05   4.5513570907017336E-05   4.4427119415731108E-05
   4.3367316498368393E-05   4.2333491595079188E-05   4.1324991414626765E-05   4.0341179480952106E-05   3.9381435691804203E-05
   3.8445155889115488E-05   3.7531751440811095E-05   3.6640648833739057E-05   3.5771289277437149E-05   3.4923128318430863E-05
   3.4095635464793577E-05   3.3288293820687395E-05   3.2500599730619479E-05   3.1732062433155373E-05   3.0982203723830024E-05
   3.0250557627021262E-05   2.9536670076532282E-05   2.8840098604660615E-05   2.8160412039520540E-05   2.7497190210399024E-05
   2.6850023660931892E-05   2.6218513369884589E-05   2.5602270479344115E-05   2.5000916030111357E-05   2.4414080704110380E-05
   2.3841404573621604E-05   2.3282536857157462E-05   2.2737135681802120E-05   2.2204867851843072E-05   2.1685408623523198E-05
   2.1178441485752967E-05   2.0683657946620226E-05   2.0200757325543443E-05   1.9729446550916894E-05   1.9269439963100431E-05
   1.8820459122612070E-05   1.8382232623380822E-05   1.7954495910928412E-05   1.7536991105344790E-05   1.7129466828930386E-05
   1.6731678038380036E-05   1.6343385861386800E-05   1.5964357437548328E-05   1.5594365763458644E-05   1.5233189541876069E-05
   1.4880613034856365E-05   1.4536425920745859E-05   1.4200423154931293E-05   1.3872404834245925E-05   1.3552176064935048E-05
   1.3239546834083316E-05   1.2934331884416315E-05   1.2636350592380338E-05   1.2345426849417894E-05   1.2061388946351563E-05
   1.1784069460792149E-05   1.1513305147494503E-05   1.1248936831576941E-05   1.0990809304533928E-05   1.0738771222962343E-05
   1.0492675009932858E-05   1.0252376758934702E-05   1.0017736140324131E-05   9.7886163102134657E-06   9.5648838217311827E-06
   9.3464085385950434E-06   9.1330635509323918E-06   8.9247250932911343E-06   8.7212724647821239E-06   8.5225879512953557E-06
   8.3285567497379282E-06   8.1390668942365502E-06   7.9540091842555328E-06   7.7732771145779936E-06   7.5967668071014045E-06
   7.4243769443998324E-06   7.2560087050048766E-06   7.0915657003623129E-06   6.9309539134172148E-06   6.7740816387870001E-06
   6.6208594244791909E-06   6.4712000151135140E-06   6.3250182966089734E-06   6.1822312422961629E-06   6.0427578604194439E-06
   5.9065191429896838E-06   5.7734380159543444E-06   5.6434392906489391E-06   5.5164496164966652E-06   5.3923974349233193E-06
   5.2712129344555573E-06   5.1528280069716749E-06   5.0371762050740737E-06   4.9241927005548248E-06   4.8138142439250494E-06
   4.7059791249805317E-06   4.6006271343763359E-06   4.4976995261842537E-06   4.3971389814068406E-06   4.2988895724237650E-06
   4.2028967283455624E-06   4.1091072012513286E-06   4.0174690332872669E-06   3.9279315246035750E-06   3.8404452021080509E-06
   3.7549617890144803E-06   3.6714341751663354E-06   3.5898163881141225E-06   3.5100635649279827E-06   3.4321319247258034E-06
   3.3559787418984080E-06   3.2815623200139004E-06   3.2088419663829538E-06   3.1377779672689614E-06   3.0683315637250642E-06
   3.0004649280428388E-06   2.9341411407962738E-06   2.8693241684657561E-06   2.8059788416272500E-06   2.7440708336914881E-06
   2.6835666401799633E-06   2.6244335585226987E-06   2.5666396683652398E-06   2.5101538123713823E-06   2.4549455775085853E-06
   2.4009852768044394E-06   2.3482439315609506E-06   2.2966932540160486E-06   2.2463056304397519E-06   2.1970541046545770E-06
   2.1489123619690173E-06   2.1018547135132373E-06   2.0558560809673527E-06   2.0108919816712869E-06   1.9669385141074554E-06
   1.9239723437457692E-06   1.8819706892423988E-06   1.8409113089829518E-06   1.8007724879610898E-06   1.7615330249845603E-06
   1.7231722201995969E-06   1.6856698629261216E-06   1.6490062197955317E-06   1.6131620231834488E-06   1.5781184599299028E-06
   1.5438571603396286E-06   1.5103601874554141E-06   1.4776100265973844E-06   1.4455895751616964E-06   1.4142821326718902E-06
   1.3836713910765339E-06   1.3537414252869365E-06   1.3244766839487993E-06   1.2958619804419639E-06   1.2678824841023186E-06
   1.2405237116604500E-06   1.2137715188914053E-06   1.1876120924702906E-06   1.1620319420284968E-06   1.1370178924054901E-06
   1.1125570760912270E-06   1.0886369258544301E-06   1.0652451675519316E-06   1.0423698131146762E-06   1.0199991537058264E-06
   9.9812175304667178E-07   9.7672644090618559E-07   9.5580230674993134E-07   9.3533869354464963E-07   9.1532519171422935E-07
   8.9575163324357973E-07   8.7660808592653218E-07   8.5788484775421376E-07   8.3957244144041039E-07   8.2166160908035630E-07
   8.0414330693987192E-07   7.8700870037128128E-07   7.7024915885320164E-07   7.5385625115097220E-07   7.3782174059475926E-07
   7.2213758047243304E-07   7.0679590953423695E-07   6.9178904760669483E-07   6.7710949131276328E-07   6.6274990989580396E-07
   6.4870314114472415E-07   6.3496218741768064E-07   6.2152021176212694E-07   6.0837053412852075E-07   5.9550662767567390E-07
   5.8292211516520587E-07   5.7061076544308608E-07   5.5856649000603948E-07   5.4678333965065589E-07   5.3525550120333198E-07
   5.2397729432881331E-07   5.1294316841565070E-07   5.0214769953644380E-07   4.9158558748119773E-07   4.8125165286189997E-07
   4.7114083428659882E-07   4.6124818560127720E-07   4.5156887319781322E-07   4.4209817338646896E-07   4.3283146983127096E-07
   4.2376425104676061E-07   4.1489210795460555E-07   4.0621073149860212E-07   3.9771591031665604E-07   3.8940352846830130E-07
   3.8126956321645972E-07   3.7331008286206829E-07   3.6552124463030169E-07   3.5789929260712608E-07   3.5044055572495407E-07
   3.4314144579621800E-07   3.3599845559365469E-07   3.2900815697621552E-07   3.2216719905945381E-07   3.1547230642931881E-07
   3.0892027739830294E-07   3.0250798230290911E-07   2.9623236184143500E-07   2.9009042545110696E-07   2.8407924972357807E-07
   2.7819597685790150E-07   2.7243781315004112E-07   2.6680202751804358E-07   2.6128595006202150E-07   2.5588697065806320E-07
   2.5060253758532716E-07   2.4543015618542486E-07   2.4036738755339026E-07   2.3541184725943065E-07   2.3056120410073177E-07
   2.2581317888259890E-07   2.2116554322819308E-07   2.1661611841624273E-07   2.1216277424596573E-07   2.0780342792864562E-07
   2.0353604300513363E-07   1.9935862828871608E-07   1.9526923683271646E-07   1.9126596492221653E-07   1.8734695108937640E-07
